svm_type c_svc
kernel_type rbf
gamma 2
nr_class 5
total_sv 524
rho -0.158839 0.0573367 -0.175261 -1 0.240296 -0.00453149 -0.960109 -0.248877 -0.986789 -0.979447
label 1 4 2 3 5
nr_sv 146 102 166 108 2
SV
0.8414293622425032 1.057433996402989 0.8249534945794086 0 1:2 2:7 3:7 4:7 5:7 6:7 7:2 8:7 9:7 10:7 11:7 12:7 13:6 14:7 15:7 16:7 17:7 18:7 19:3 20:7 21:7 22:7 23:7 24:7 25:7 26:7 27:7 28:7 29:7 30:7 31:7 32:7 33:7 34:7 35:7 36:7 39:3 
8.3721 8.3721 0.900590667617464 0 1:7 2:7 3:7 4:7 5:7 6:7 7:7 8:7 9:7 10:7 11:7 12:7 13:7 14:7 15:7 16:7 17:7 18:7 19:7 20:7 21:7 22:7 23:7 24:7 25:7 26:7 27:7 28:7 29:7 30:7 31:7 32:7 33:7 34:7 35:7 36:7 39:2 40:1 
0 0 1.000068102988324 0 1:7 2:7 3:7 4:7 5:7 6:7 7:7 8:7 9:7 10:7 11:7 12:7 13:7 14:7 15:7 16:7 17:7 18:7 19:7 20:7 21:7 22:7 23:7 24:7 25:7 26:7 27:7 28:7 29:7 30:7 31:7 32:7 33:7 34:7 35:7 36:7 39:1 40:2 
0.7280745838988991 0.9143388932163889 8.080521639815023 0 1:7 2:7 3:7 4:7 5:7 6:7 7:7 8:7 9:7 10:7 11:7 12:7 13:7 14:7 15:7 16:7 17:7 18:7 19:7 20:7 21:7 22:7 23:7 24:7 25:7 26:7 27:7 28:7 29:7 30:7 31:7 32:7 33:7 34:7 35:7 36:7 39:1 40:2 
0.8265574718872265 1.038332500947163 0.8100490129015241 0 1:7 2:7 3:8 4:7 5:7 6:7 7:7 8:7 9:8 10:7 11:7 12:7 13:7 14:7 15:7 16:7 17:7 18:7 19:7 20:7 21:7 22:7 23:7 24:7 25:7 26:7 27:7 28:7 29:7 30:7 31:7 32:7 33:7 34:7 35:7 36:7 39:1 40:2 
0.8414392468398687 1.057458082627731 0.8244712374466507 0 1:7 2:7 3:7 4:8 5:2 6:7 7:7 8:7 9:1 10:8 11:8 12:7 13:7 14:7 15:8 16:8 17:7 18:7 19:7 20:7 21:8 22:7 23:7 24:7 25:7 26:7 27:7 28:7 29:7 30:7 31:7 32:7 33:7 34:7 35:7 39:3 
1.039844650205429 1.207702320027343 8.3721 0 1:7 2:7 3:7 4:7 5:7 6:7 7:7 8:7 9:7 10:7 11:7 12:7 13:7 14:7 15:7 16:7 17:7 18:7 19:7 20:7 21:7 22:7 23:7 24:7 25:7 26:7 27:7 28:7 29:7 30:7 31:7 32:7 33:7 34:7 35:7 36:7 39:3 40:1 
0.8402836183866502 1.056404624064012 0.8244010298235181 0 1:8 2:7 3:7 4:7 5:7 6:7 7:8 8:7 9:7 10:7 11:7 12:7 13:8 14:7 15:7 16:7 17:7 18:7 19:8 20:7 21:7 22:7 23:7 24:7 25:7 26:7 27:7 28:7 29:7 30:7 31:7 32:7 33:7 34:7 35:7 36:7 39:2 40:2 
0.8410363321391311 1.057230074095737 0.8246783741391036 0 1:8 2:8 3:7 4:7 5:7 6:7 7:8 8:7 9:7 10:7 11:7 12:7 13:8 14:7 15:7 16:7 17:7 18:7 19:8 20:7 21:7 22:7 23:7 24:7 25:8 26:7 27:7 28:7 29:7 30:7 31:7 32:7 33:7 34:7 35:7 36:7 39:1 40:3 
0.8413850177555988 1.057494511104507 0.8244907801569492 0 1:4 2:8 3:7 4:7 5:7 6:7 7:8 8:8 9:7 10:7 11:7 12:7 13:8 14:8 15:7 16:7 17:7 18:7 19:8 20:7 21:7 22:7 23:7 24:7 25:8 26:7 27:7 28:7 29:7 30:7 31:8 32:7 33:7 34:7 35:7 36:7 40:4 
0.8412995293537854 1.057342183105595 0.824545112078148 0 1:7 2:6 3:6 4:8 5:7 6:7 7:4 8:2 9:8 10:7 11:7 12:7 13:8 14:8 15:8 16:7 17:7 18:7 19:8 20:8 21:7 22:7 23:7 24:7 25:8 26:8 27:7 28:7 29:7 30:7 31:8 32:7 33:7 34:7 35:7 36:7 40:4 
0.8413532127209977 1.057581858959723 0.8245308131644676 0 1:7 2:7 3:7 4:8 5:6 6:7 7:7 8:7 9:8 10:8 11:8 12:7 13:7 14:7 15:8 16:8 17:8 18:7 19:7 20:7 21:8 22:8 23:7 24:7 25:7 26:7 27:8 28:7 29:7 30:7 31:7 32:7 33:7 34:7 35:7 39:4 
0.8411057152337151 1.057205367508613 0.824434079345693 0 1:7 2:7 3:6 4:7 5:7 6:7 7:6 8:6 9:7 10:7 11:7 12:7 13:3 14:6 15:7 16:7 17:7 18:7 19:6 20:6 21:7 22:7 23:7 24:7 25:3 26:7 27:7 28:7 29:7 30:7 31:6 32:7 33:7 34:7 35:7 36:7 39:4 
1.156517705486739 0 0 0 1:7 2:7 3:7 4:7 5:7 6:7 7:7 8:7 9:7 10:7 11:7 12:7 13:7 14:7 15:7 16:7 17:7 18:7 19:7 20:7 21:7 22:7 23:7 24:7 25:7 26:7 27:7 28:7 29:7 30:7 31:7 32:7 33:7 34:7 35:7 36:7 39:2 40:2 
8.031355709480163 0.7854385928126333 0.5300629069937718 0 1:7 2:7 3:7 4:7 5:7 6:7 7:7 8:7 9:7 10:7 11:7 12:7 13:7 14:7 15:7 16:7 17:7 18:7 19:7 20:7 21:7 22:7 23:7 24:7 25:7 26:7 27:7 28:7 29:7 30:7 31:7 32:7 33:7 34:7 35:7 36:7 39:2 40:2 
0.74123758360892 0.9310701036706044 0.7263968168311392 0 1:7 2:7 3:6 4:7 5:7 6:7 7:7 8:7 9:7 10:7 11:7 12:7 13:7 14:7 15:7 16:7 17:7 18:7 19:7 20:7 21:7 22:7 23:7 24:7 25:7 26:7 27:7 28:7 29:7 30:7 31:7 32:7 33:7 34:7 35:7 36:7 39:2 40:2 
0.8414917408344731 1.057378471003098 0.8249534945794085 0 1:7 2:7 3:6 4:8 5:7 6:7 7:7 8:7 9:1 10:8 11:7 12:7 13:7 14:7 15:1 16:7 17:7 18:7 19:7 20:7 21:6 22:7 23:7 24:7 25:7 26:7 27:7 28:7 29:7 30:7 31:7 32:7 33:7 34:7 35:7 36:7 39:2 40:2 
0.8624899959075855 1.057581849354078 0.8248286339578346 0 1:7 2:6 3:6 4:7 5:7 6:7 7:6 8:3 9:6 10:7 11:7 12:7 13:6 14:2 15:7 16:7 17:7 18:7 19:6 20:2 21:7 22:7 23:7 24:7 25:6 26:7 27:7 28:7 29:7 30:7 31:3 32:7 33:7 34:7 35:7 36:7 39:7 40:1 
0.8413671487294636 1.074906361532735 8.3721 0 1:7 2:7 3:7 4:7 5:7 6:7 7:7 8:7 9:7 10:7 11:7 12:7 13:7 14:7 15:7 16:7 17:7 18:7 19:7 20:7 21:7 22:7 23:7 24:7 25:7 26:7 27:7 28:7 29:7 30:7 31:7 32:7 33:7 34:7 35:7 36:7 39:2 40:6 
0.8407090134843191 1.057394152789077 0.8248605144236737 0 1:2 2:7 3:7 4:7 5:7 6:7 7:6 8:7 9:7 10:7 11:7 12:7 13:8 14:7 15:7 16:7 17:7 18:7 19:8 20:7 21:7 22:7 23:7 24:7 25:7 26:7 27:7 28:7 29:7 30:7 31:7 32:7 33:7 34:7 35:7 36:7 39:2 40:6 
0.8410674398780644 1.057483768144768 0.8249210181896792 0 1:7 2:7 3:7 4:7 5:7 6:7 7:7 8:7 9:7 10:7 11:7 12:7 13:7 14:7 15:7 16:7 17:7 18:7 19:7 20:7 21:7 22:7 23:7 24:7 25:7 26:7 27:7 28:7 29:7 30:7 31:7 32:7 33:7 34:7 35:7 36:7 39:18 
0.8413331310119787 1.057162805436918 0.8249655075658555 0 1:7 2:7 3:5 4:3 5:7 6:7 7:7 8:7 9:7 10:6 11:7 12:7 13:7 14:7 15:7 16:7 17:7 18:7 19:7 20:7 21:7 22:7 23:7 24:7 25:7 26:7 27:7 28:7 29:7 30:7 31:7 32:7 33:7 34:7 35:7 36:7 39:18 
0.8407093900692741 1.057302074411714 0.8249751312269582 0 1:6 2:7 3:7 4:7 5:7 6:7 7:2 8:7 9:7 10:7 11:7 12:7 13:6 14:7 15:7 16:7 17:7 18:7 19:6 20:7 21:7 22:7 23:7 24:7 25:6 26:7 27:7 28:7 29:7 30:7 31:6 32:7 33:7 34:7 35:7 36:7 39:9 40:9 
0.8411075251373655 1.057606742348645 0.824390258848942 0 1:6 2:7 3:7 4:7 5:7 6:7 7:6 8:7 9:7 10:7 11:7 12:7 13:2 14:7 15:7 16:7 17:7 18:7 19:6 20:7 21:7 22:7 23:7 24:7 25:6 26:7 27:7 28:7 29:7 30:7 31:6 32:7 33:7 34:7 35:7 36:7 39:9 40:9 
0.8411055992071519 1.057553812869743 0.8249491713739215 0 1:8 2:2 3:7 4:7 5:7 6:7 7:6 8:6 9:7 10:7 11:7 12:7 13:6 14:7 15:7 16:7 17:7 18:7 19:2 20:7 21:7 22:7 23:7 24:7 25:6 26:7 27:7 28:7 29:7 30:7 31:6 32:7 33:7 34:7 35:7 36:7 39:9 40:9 
0.8413301571147762 1.057518391156563 0.8244306979394005 0 1:6 2:2 3:7 4:7 5:7 6:7 7:8 8:2 9:7 10:7 11:7 12:7 13:6 14:2 15:7 16:7 17:7 18:7 19:6 20:6 21:7 22:7 23:7 24:7 25:2 26:7 27:7 28:7 29:7 30:7 31:6 32:7 33:7 34:7 35:7 36:7 39:9 40:9 
8.3721 1.038225161345552 0.8097271552476852 0 1:7 2:7 3:7 4:7 5:7 6:7 7:7 8:7 9:7 10:7 11:7 12:7 13:7 14:7 15:7 16:7 17:7 18:7 19:7 20:7 21:7 22:7 23:7 24:7 25:7 26:7 27:7 28:7 29:7 30:7 31:7 32:7 33:7 34:7 35:7 36:7 39:3 40:15 
0.8835504028234428 1.055610892691611 0.8313355084096058 0 1:7 2:7 3:7 4:7 5:7 6:7 7:7 8:7 9:7 10:7 11:7 12:7 13:7 14:7 15:7 16:7 17:7 18:7 19:7 20:7 21:7 22:7 23:7 24:7 25:7 26:7 27:7 28:7 29:7 30:7 31:7 32:7 33:7 34:7 35:7 36:7 39:2 40:16 
0.8435522250473257 1.059853624144079 0.8278734177397861 0 1:7 2:7 3:7 4:7 5:7 6:7 7:8 8:7 9:7 10:7 11:7 12:7 13:8 14:7 15:7 16:7 17:7 18:7 19:8 20:7 21:7 22:7 23:7 24:7 25:7 26:7 27:7 28:7 29:7 30:7 31:7 32:7 33:7 34:7 35:7 36:7 39:1 40:17 
0.8408294131472215 1.057518584183751 0.8249706121583568 0 1:3 2:7 3:7 4:7 5:7 6:7 7:7 8:7 9:7 10:7 11:7 12:7 13:8 14:7 15:7 16:7 17:7 18:7 19:8 20:7 21:7 22:7 23:7 24:7 25:8 26:7 27:7 28:7 29:7 30:7 31:7 32:7 33:7 34:7 35:7 36:7 39:1 40:17 
0.8414024621623517 1.057606742616779 0.8249534945794086 0 1:7 2:7 3:7 4:7 5:7 6:7 7:3 8:7 9:7 10:7 11:7 12:7 13:7 14:7 15:7 16:7 17:7 18:7 19:8 20:7 21:7 22:7 23:7 24:7 25:8 26:7 27:7 28:7 29:7 30:7 31:8 32:7 33:7 34:7 35:7 36:7 39:1 40:17 
0.8413489108402574 1.057212705093561 0.8243686256675009 0 1:8 2:7 3:7 4:7 5:7 6:7 7:7 8:7 9:7 10:7 11:7 12:7 13:3 14:7 15:7 16:7 17:7 18:7 19:7 20:7 21:7 22:7 23:7 24:7 25:8 26:7 27:7 28:7 29:7 30:7 31:8 32:7 33:7 34:7 35:7 36:7 39:1 40:17 
0.8408268835958683 1.075289695797261 0.824434079345693 0 1:7 2:8 3:7 4:6 5:7 6:5 7:7 8:8 9:7 10:6 11:7 12:7 13:7 14:7 15:7 16:6 17:7 18:6 19:7 20:3 21:7 22:6 23:7 24:7 25:7 26:6 27:7 28:6 29:6 30:6 31:7 32:6 33:7 34:6 35:7 36:7 39:17 
1.067667640745663 1.663439790067116 0 0 1:7 2:7 3:7 4:7 5:7 6:7 7:7 8:7 9:7 10:7 11:7 12:7 13:7 14:7 15:7 16:7 17:7 18:7 19:7 20:7 21:7 22:7 23:7 24:7 25:7 26:7 27:7 28:7 29:7 30:7 31:7 32:7 33:7 34:7 35:7 36:7 39:16 40:1 
8.3721 8.3721 1.157745466539287 0 1:7 2:7 3:7 4:7 5:7 6:7 7:7 8:7 9:7 10:7 11:7 12:7 13:7 14:7 15:7 16:7 17:7 18:7 19:7 20:7 21:7 22:7 23:7 24:7 25:7 26:7 27:7 28:7 29:7 30:7 31:7 32:7 33:7 34:7 35:7 36:7 39:16 40:1 
8.320503703830184 7.933277898379168 8.237917441305878 0 1:7 2:7 3:7 4:7 5:7 6:7 7:7 8:7 9:7 10:7 11:7 12:7 13:7 14:7 15:7 16:7 17:7 18:7 19:7 20:7 21:7 22:7 23:7 24:7 25:7 26:7 27:7 28:7 29:7 30:7 31:7 32:7 33:7 34:7 35:7 36:7 39:16 40:1 
0.8410681594589681 1.060193620368785 1.026301126143517 0 1:8 2:7 3:7 4:7 5:7 6:7 7:8 8:7 9:7 10:7 11:7 12:7 13:7 14:7 15:7 16:7 17:7 18:7 19:8 20:7 21:7 22:7 23:7 24:7 25:7 26:7 27:7 28:7 29:7 30:7 31:7 32:7 33:7 34:7 35:7 36:7 39:15 40:2 
0.8408316513773022 1.057364638591485 0.8465533603983744 0 1:2 2:7 3:7 4:7 5:7 6:7 7:7 8:7 9:7 10:7 11:7 12:7 13:8 14:7 15:7 16:7 17:7 18:7 19:8 20:7 21:7 22:7 23:7 24:7 25:7 26:7 27:7 28:7 29:7 30:7 31:7 32:7 33:7 34:7 35:7 36:7 39:14 40:3 
0.8407092950702186 1.057440578511533 0.8249717272310311 0 1:7 2:7 3:7 4:7 5:7 6:7 7:7 8:7 9:7 10:7 11:7 12:7 13:7 14:7 15:7 16:7 17:7 18:7 19:2 20:7 21:7 22:7 23:7 24:7 25:8 26:7 27:7 28:7 29:7 30:7 31:7 32:7 33:7 34:7 35:7 36:7 39:14 40:3 
0.8413549387872913 1.057313944031496 0.8248706681165422 0 1:7 2:7 3:7 4:7 5:7 6:7 7:7 8:7 9:7 10:7 11:7 12:7 13:7 14:7 15:7 16:7 17:7 18:7 19:7 20:7 21:7 22:7 23:7 24:7 25:2 26:7 27:7 28:7 29:7 30:7 31:8 32:7 33:7 34:7 35:7 36:7 39:14 40:3 
0.8414322327968912 1.057087339128608 0.8249705206694598 0 1:3 2:7 3:7 4:7 5:7 6:7 7:6 8:7 9:7 10:7 11:7 12:7 13:6 14:7 15:7 16:7 17:7 18:7 19:6 20:7 21:7 22:7 23:7 24:7 25:7 26:7 27:7 28:7 29:7 30:7 31:7 32:7 33:7 34:7 35:7 36:7 39:14 40:3 
0.841333415866959 1.057633328502196 0.824390258848942 0 1:7 2:7 3:7 4:7 5:7 6:7 7:3 8:7 9:7 10:7 11:7 12:7 13:6 14:7 15:7 16:7 17:7 18:7 19:6 20:7 21:7 22:7 23:7 24:7 25:6 26:7 27:7 28:7 29:7 30:7 31:7 32:7 33:7 34:7 35:7 36:7 39:14 40:3 
0.8407037384560351 1.057665189502965 0.8249719865979401 0 1:7 2:8 3:7 4:7 5:7 6:7 7:7 8:7 9:7 10:7 11:7 12:7 13:3 14:7 15:7 16:7 17:7 18:7 19:6 20:7 21:7 22:7 23:7 24:7 25:6 26:7 27:7 28:7 29:7 30:7 31:6 32:7 33:7 34:7 35:7 36:7 39:14 40:3 
0.8406773190099178 1.057443886903549 0.8244187482937678 0 1:7 2:7 3:7 4:7 5:7 6:7 7:7 8:8 9:7 10:7 11:7 12:7 13:7 14:8 15:7 16:7 17:7 18:7 19:3 20:7 21:7 22:7 23:7 24:7 25:6 26:7 27:7 28:7 29:7 30:7 31:6 32:7 33:7 34:7 35:7 36:7 39:14 40:3 
0.8414109291955872 1.057078604127065 0.8244143997072896 0 1:7 2:1 3:7 4:7 5:7 6:7 7:7 8:7 9:7 10:7 11:7 12:7 13:7 14:7 15:7 16:7 17:7 18:7 19:7 20:8 21:7 22:7 23:7 24:7 25:3 26:8 27:7 28:7 29:7 30:7 31:6 32:7 33:7 34:7 35:7 36:7 39:14 40:3 
0.8409535814064074 1.056825540318152 0.8244708834913729 0 1:7 2:6 3:8 4:7 5:7 6:7 7:7 8:6 9:7 10:7 11:7 12:7 13:7 14:1 15:7 16:7 17:7 18:7 19:7 20:7 21:7 22:7 23:7 24:7 25:7 26:7 27:7 28:7 29:7 30:7 31:3 32:8 33:7 34:7 35:7 36:7 39:14 40:3 
0.863001736812731 1.057529373348778 0.8248849385917756 0 1:7 2:7 3:7 4:7 5:7 6:7 7:7 8:2 9:7 10:7 11:7 12:7 13:7 14:8 15:7 16:7 17:7 18:7 19:7 20:7 21:7 22:7 23:7 24:7 25:7 26:7 27:7 28:7 29:7 30:7 31:1 32:7 33:7 34:7 35:7 36:7 39:13 40:4 
0.8408269669063293 1.075062292368641 0.8249591166226373 0 1:7 2:7 3:7 4:7 5:7 6:7 7:7 8:7 9:7 10:7 11:7 12:7 13:7 14:7 15:7 16:7 17:7 18:7 19:7 20:2 21:7 22:7 23:7 24:7 25:7 26:8 27:7 28:7 29:7 30:7 31:7 32:7 33:7 34:7 35:7 36:7 39:13 40:4 
0.8407375699775268 1.075066667021018 0.8249471135149274 0 1:6 2:6 3:7 4:7 5:7 6:7 7:7 8:7 9:8 10:7 11:7 12:7 13:7 14:7 15:7 16:7 17:7 18:7 19:7 20:7 21:7 22:7 23:7 24:7 25:7 26:7 27:7 28:7 29:7 30:7 31:7 32:2 33:7 34:7 35:7 36:7 39:13 40:4 
0.840830985226301 1.057575250145993 0.8248781345975631 0 1:3 2:8 3:7 4:2 5:7 6:7 7:7 8:8 9:8 10:7 11:7 12:7 13:7 14:8 15:8 16:7 17:7 18:7 19:7 20:6 21:8 22:7 23:7 24:7 25:7 26:1 27:7 28:7 29:7 30:7 31:7 32:7 33:7 34:7 35:7 36:7 39:13 40:4 
0.8408316531116233 1.057494511104507 0.8249466479130971 0 1:7 2:7 3:7 4:8 5:7 6:7 7:3 8:8 9:7 10:8 11:7 12:7 13:7 14:8 15:7 16:2 17:7 18:7 19:7 20:8 21:7 22:2 23:7 24:7 25:7 26:8 27:8 28:2 29:7 30:7 31:7 32:6 33:8 34:7 35:7 36:7 39:12 40:5 
0.8414444045952865 1.057593031548686 0.8249642626643147 0 1:7 2:3 3:7 4:8 5:7 6:7 7:7 8:3 9:8 10:8 11:7 12:7 13:3 14:7 15:7 16:8 17:7 18:7 19:7 20:8 21:7 22:8 23:7 24:7 25:7 26:8 27:7 28:8 29:7 30:7 31:7 32:8 33:7 34:8 35:7 36:7 39:11 40:6 
0.8412835479567292 1.05754472728441 0.8249734285410274 0 1:7 2:3 3:7 4:8 5:7 6:8 7:7 8:6 9:7 10:8 11:7 12:8 13:3 14:6 15:7 16:8 17:7 18:2 19:6 20:6 21:7 22:6 23:8 24:2 25:7 26:6 27:8 28:1 29:8 30:2 31:7 32:6 33:6 34:7 35:8 36:7 39:7 40:10 
0.8254244658663663 1.055781390928254 0.8096608626473129 0 1:7 2:7 3:7 4:7 5:7 6:7 7:7 8:7 9:7 10:7 11:7 12:7 13:7 14:7 15:7 16:7 17:7 18:7 19:7 20:7 21:7 22:7 23:7 24:7 25:7 26:7 27:7 28:7 29:7 30:7 31:7 32:7 33:7 34:7 35:7 36:7 39:6 40:6 
0.8263427177917361 1.037894390307281 0.8321563189028792 0 1:7 2:7 3:7 4:7 5:7 6:7 7:7 8:7 9:7 10:7 11:7 12:7 13:7 14:7 15:7 16:7 17:7 18:7 19:7 20:7 21:7 22:7 23:7 24:7 25:7 26:7 27:7 28:7 29:7 30:7 31:7 32:7 33:7 34:7 35:7 36:7 39:5 40:7 
0.841362546363901 1.057302074411714 0.8249678958340655 0 1:2 2:7 3:7 4:7 5:7 6:7 7:2 8:7 9:7 10:7 11:7 12:7 13:2 14:7 15:7 16:7 17:7 18:7 19:7 20:7 21:7 22:7 23:7 24:7 25:7 26:7 27:7 28:7 29:7 30:7 31:7 32:7 33:7 34:7 35:7 36:7 39:4 40:8 
0.8411075851260371 1.057231441773559 0.8249593994548826 0 1:7 2:7 3:7 4:7 5:7 6:7 7:2 8:7 9:7 10:7 11:7 12:7 13:2 14:7 15:7 16:7 17:7 18:7 19:2 20:7 21:7 22:7 23:7 24:7 25:7 26:7 27:7 28:7 29:7 30:7 31:7 32:7 33:7 34:7 35:7 36:7 39:4 40:8 
0.8411076105594055 1.057628703412166 0.8249780267314059 0 1:7 2:7 3:7 4:7 5:7 6:7 7:7 8:2 9:7 10:7 11:7 12:7 13:2 14:7 15:7 16:7 17:7 18:7 19:2 20:7 21:7 22:7 23:7 24:7 25:2 26:7 27:7 28:7 29:7 30:7 31:7 32:7 33:7 34:7 35:7 36:7 39:3 40:9 
0.8413417213443319 1.057212705093561 0.8244154370980235 0 1:7 2:8 3:7 4:7 5:7 6:7 7:7 8:7 9:7 10:7 11:7 12:7 13:7 14:7 15:7 16:7 17:7 18:7 19:2 20:2 21:7 22:7 23:7 24:7 25:2 26:7 27:7 28:7 29:7 30:7 31:2 32:7 33:7 34:7 35:7 36:7 39:3 40:9 
0.8262760362255179 1.037832020089836 0.831665006500737 0 1:7 2:7 3:7 4:7 5:7 6:7 7:7 8:7 9:7 10:7 11:7 12:7 13:7 14:7 15:7 16:7 17:7 18:7 19:7 20:7 21:7 22:7 23:7 24:7 25:7 26:7 27:7 28:7 29:7 30:7 31:7 32:7 33:7 34:7 35:7 36:7 39:3 40:9 
0.8258479349109299 1.05569046664193 0.8091861585132621 0 1:7 2:7 3:7 4:7 5:7 6:7 7:7 8:7 9:7 10:7 11:7 12:7 13:7 14:7 15:7 16:7 17:7 18:7 19:7 20:7 21:7 22:7 23:7 24:7 25:7 26:7 27:7 28:7 29:7 30:7 31:7 32:7 33:7 34:7 35:7 36:7 39:2 40:10 
0 1.061227910674684 1 0 1:7 2:7 3:7 4:7 5:7 6:7 7:7 8:7 9:7 10:7 11:7 12:7 13:7 14:7 15:7 16:7 17:7 18:7 19:7 20:7 21:7 22:7 23:7 24:7 25:7 26:7 27:7 28:7 29:7 30:7 31:7 32:7 33:7 34:7 35:7 36:7 39:28 
0.8413417213443319 1.057025565697677 0.8249640239289324 0 1:7 2:2 3:7 4:7 5:7 6:7 7:7 8:2 9:7 10:7 11:7 12:7 13:7 14:6 15:7 16:7 17:7 18:7 19:5 20:7 21:7 22:7 23:7 24:7 25:7 26:2 27:7 28:7 29:7 30:7 31:7 32:7 33:7 34:7 35:7 36:7 39:28 
0.8413473749458114 1.05671026554116 0.8243811966442856 0 1:7 2:3 3:7 4:7 5:7 6:7 7:7 8:2 9:7 10:7 11:7 12:7 13:7 14:2 15:7 16:7 17:7 18:7 19:7 20:2 21:7 22:7 23:7 24:7 25:5 26:6 27:7 28:7 29:7 30:7 31:7 32:7 33:7 34:7 35:7 36:7 39:28 
0.8405688347907159 8.36798155403957 8.196532042800825 0 1:7 2:7 3:7 4:7 5:7 6:7 7:7 8:7 9:7 10:7 11:7 12:7 13:7 14:7 15:7 16:7 17:7 18:7 19:7 20:7 21:7 22:7 23:7 24:7 25:7 26:7 27:7 28:7 29:7 30:7 31:7 32:7 33:7 34:7 35:7 36:7 39:28 
8.3721 8.3721 0.8246459487800514 0 1:7 2:7 3:2 4:7 5:7 6:7 7:7 8:7 9:7 10:7 11:7 12:7 13:7 14:7 15:7 16:7 17:7 18:7 19:7 20:7 21:7 22:7 23:7 24:7 25:7 26:7 27:7 28:7 29:7 30:7 31:7 32:7 33:7 34:7 35:7 36:7 39:28 
0.840757932152569 1.057131351269343 0.8249639331418746 0 1:7 2:7 3:7 4:7 5:7 6:7 7:7 8:7 9:7 10:7 11:7 12:7 13:7 14:7 15:7 16:7 17:7 18:7 19:7 20:7 21:2 22:7 23:7 24:7 25:7 26:7 27:7 28:7 29:7 30:7 31:7 32:7 33:7 34:7 35:7 36:7 39:28 
0.8405059737423843 1.057650907558336 0.8246445852210662 0 1:7 2:7 3:7 4:2 5:7 6:7 7:7 8:7 9:7 10:7 11:7 12:7 13:7 14:7 15:7 16:7 17:7 18:7 19:7 20:7 21:7 22:7 23:7 24:7 25:7 26:7 27:7 28:7 29:7 30:7 31:7 32:7 33:7 34:7 35:7 36:7 39:28 
0.841491766188981 1.057233455368334 0.8246301564780246 0 1:7 2:7 3:7 4:2 5:7 6:7 7:7 8:7 9:7 10:2 11:7 12:7 13:7 14:7 15:7 16:6 17:7 18:7 19:7 20:7 21:7 22:7 23:7 24:7 25:7 26:7 27:7 28:2 29:7 30:7 31:7 32:7 33:7 34:7 35:7 36:7 39:28 
0.8413417213443319 1.057302074411714 0.8249639331418746 0 1:7 2:7 3:7 4:3 5:6 6:2 7:7 8:7 9:5 10:3 11:6 12:7 13:7 14:7 15:7 16:3 17:6 18:7 19:7 20:7 21:7 22:2 23:7 24:7 25:7 26:7 27:7 28:2 29:2 30:7 31:7 32:7 33:7 34:2 35:7 36:7 39:28 
0.8286932866444549 0 0 0 1:7 2:7 3:7 4:7 5:7 6:7 7:7 8:7 9:7 10:7 11:7 12:7 13:7 14:7 15:7 16:7 17:7 18:7 19:7 20:7 21:7 22:7 23:7 24:7 25:7 26:7 27:7 28:7 29:7 30:7 31:7 32:7 33:7 34:7 35:7 36:7 39:23 40:5 
8.3721 1.039269177328915 0.8099821390063561 0 1:7 2:7 3:7 4:7 5:7 6:7 7:7 8:7 9:7 10:7 11:7 12:7 13:7 14:7 15:7 16:7 17:7 18:7 19:7 20:7 21:7 22:7 23:7 24:7 25:7 26:7 27:7 28:7 29:7 30:7 31:7 32:7 33:7 34:7 35:7 36:7 39:23 40:5 
8.369986465068424 8.3721 8.3721 0 1:7 2:7 3:7 4:7 5:7 6:7 7:7 8:7 9:7 10:7 11:7 12:7 13:7 14:7 15:7 16:7 17:7 18:7 19:7 20:7 21:7 22:7 23:7 24:7 25:7 26:7 27:7 28:7 29:7 30:7 31:7 32:7 33:7 34:7 35:7 36:7 39:23 40:5 
0.8112959390451603 1.019195293240761 0.7949505270358433 0 1:7 2:7 3:7 4:7 5:7 6:7 7:7 8:7 9:7 10:7 11:7 12:7 13:7 14:7 15:7 16:7 17:7 18:7 19:7 20:7 21:7 22:7 23:7 24:7 25:7 26:7 27:7 28:7 29:7 30:7 31:7 32:7 33:7 34:7 35:7 36:7 39:22 40:6 
0.8113364019804026 1.019561605183183 0.7951103953679062 0 1:7 2:7 3:7 4:7 5:7 6:7 7:7 8:7 9:7 10:7 11:7 12:7 13:7 14:7 15:7 16:7 17:7 18:7 19:7 20:7 21:7 22:7 23:7 24:7 25:7 26:7 27:7 28:7 29:7 30:7 31:7 32:7 33:7 34:7 35:7 36:7 39:21 40:7 
0 1.041283448435914 0 0 1:7 2:7 3:7 4:7 5:7 6:7 7:7 8:7 9:7 10:7 11:7 12:7 13:7 14:7 15:7 16:7 17:7 18:7 19:7 20:7 21:7 22:7 23:7 24:7 25:7 26:7 27:7 28:7 29:7 30:7 31:7 32:7 33:7 34:7 35:7 36:7 39:20 40:8 
0 8.3721 1.000335582675168 0 1:7 2:7 3:7 4:7 5:7 6:7 7:7 8:7 9:7 10:7 11:7 12:7 13:7 14:7 15:7 16:7 17:7 18:7 19:7 20:7 21:7 22:7 23:7 24:7 25:7 26:7 27:7 28:7 29:7 30:7 31:7 32:7 33:7 34:7 35:7 36:7 39:20 40:8 
0 8.3721 8.3721 0 1:7 2:7 3:7 4:7 5:7 6:7 7:7 8:7 9:7 10:7 11:7 12:7 13:7 14:7 15:7 16:7 17:7 18:7 19:7 20:7 21:7 22:7 23:7 24:7 25:7 26:7 27:7 28:7 29:7 30:7 31:7 32:7 33:7 34:7 35:7 36:7 39:20 40:8 
0.8266183789330953 8.3721 8.182091717678823 0 1:7 2:7 3:7 4:7 5:7 6:7 7:7 8:7 9:7 10:7 11:7 12:7 13:7 14:7 15:7 16:7 17:7 18:7 19:7 20:7 21:7 22:7 23:7 24:7 25:7 26:7 27:7 28:7 29:7 30:7 31:7 32:7 33:7 34:7 35:7 36:7 39:20 40:8 
0.8411058927588697 1.057518584183751 0.8249559137164092 0 1:6 2:7 3:7 4:7 5:7 6:7 7:7 8:7 9:7 10:7 11:7 12:7 13:8 14:7 15:7 16:7 17:7 18:7 19:2 20:7 21:7 22:7 23:7 24:7 25:2 26:7 27:7 28:7 29:7 30:7 31:7 32:7 33:7 34:7 35:7 36:7 39:16 40:12 
0.8407090134843191 1.057600880273116 0.8249735698006053 0 1:6 2:7 3:7 4:7 5:7 6:7 7:6 8:7 9:7 10:7 11:7 12:7 13:7 14:7 15:7 16:7 17:7 18:7 19:8 20:7 21:7 22:7 23:7 24:7 25:2 26:7 27:7 28:7 29:7 30:7 31:2 32:7 33:7 34:7 35:7 36:7 39:15 40:13 
0.8404268325696962 1.057182928532356 0.8243702969639164 0 1:6 2:7 3:7 4:7 5:7 6:7 7:6 8:7 9:7 10:7 11:7 12:7 13:6 14:7 15:7 16:7 17:7 18:7 19:7 20:7 21:7 22:7 23:7 24:7 25:8 26:7 27:7 28:7 29:7 30:7 31:8 32:7 33:7 34:7 35:7 36:7 39:13 40:15 
0.8408252393441199 1.057002084097697 0.8246891866935222 0 1:6 2:7 3:7 4:7 5:7 6:7 7:6 8:7 9:7 10:7 11:7 12:7 13:6 14:7 15:7 16:7 17:7 18:7 19:6 20:7 21:7 22:7 23:7 24:7 25:7 26:7 27:7 28:7 29:7 30:7 31:8 32:7 33:7 34:7 35:7 36:7 39:12 40:16 
0.8407052076290058 1.057600880273116 0.8249675462893048 0 1:2 2:7 3:7 4:7 5:7 6:7 7:6 8:7 9:7 10:7 11:7 12:7 13:6 14:7 15:7 16:7 17:7 18:7 19:6 20:7 21:7 22:7 23:7 24:7 25:6 26:7 27:7 28:7 29:7 30:7 31:7 32:7 33:7 34:7 35:7 36:7 39:11 40:17 
0.8408269669063293 1.056813904689729 0.8249471135149274 0 1:6 2:2 3:7 4:7 5:7 6:7 7:2 8:7 9:7 10:7 11:7 12:7 13:6 14:7 15:7 16:7 17:7 18:7 19:6 20:7 21:7 22:7 23:7 24:7 25:6 26:7 27:7 28:7 29:7 30:7 31:6 32:7 33:7 34:7 35:7 36:7 39:11 40:17 
0.8408882473043167 1.057383410200231 0.8244172279918378 0 1:6 2:7 3:7 4:7 5:7 6:7 7:6 8:2 9:7 10:7 11:7 12:7 13:2 14:2 15:7 16:7 17:7 18:7 19:6 20:7 21:7 22:7 23:7 24:7 25:6 26:7 27:7 28:7 29:7 30:7 31:6 32:7 33:7 34:7 35:7 36:7 39:11 40:17 
0.8408927315193406 1.057494511104507 0.8244710157488886 0 1:7 2:6 3:7 4:7 5:7 6:7 7:7 8:2 9:7 10:7 11:7 12:7 13:6 14:7 15:7 16:7 17:7 18:7 19:2 20:2 21:7 22:7 23:7 24:7 25:7 26:2 27:7 28:7 29:7 30:7 31:7 32:7 33:7 34:7 35:7 36:7 39:11 40:17 
0.841287066832612 1.057447545274135 0.8244098981971998 0 1:7 2:8 3:7 4:7 5:7 6:7 7:7 8:2 9:7 10:7 11:7 12:7 13:7 14:6 15:7 16:7 17:7 18:7 19:6 20:2 21:7 22:7 23:7 24:7 25:2 26:7 27:7 28:7 29:7 30:7 31:7 32:2 33:7 34:7 35:7 36:7 39:10 40:18 
0.8413494943223836 1.057129808863286 0.8243584829157882 0 1:6 2:8 3:2 4:7 5:7 6:7 7:7 8:8 9:7 10:7 11:7 12:7 13:7 14:8 15:7 16:7 17:7 18:7 19:7 20:2 21:7 22:7 23:7 24:7 25:6 26:6 27:7 28:7 29:7 30:7 31:2 32:2 33:7 34:7 35:7 36:7 39:10 40:18 
0.841346182740961 1.056994510102464 0.8247675975375798 0 1:7 2:8 3:7 4:7 5:7 6:7 7:6 8:8 9:7 10:7 11:7 12:7 13:7 14:8 15:2 16:7 17:7 18:7 19:7 20:8 21:2 22:7 23:7 24:7 25:7 26:8 27:7 28:7 29:7 30:7 31:6 32:2 33:7 34:7 35:7 36:7 39:10 40:18 
0.841491766188981 1.057367023636898 0.8244320428008252 0 1:2 2:6 3:2 4:2 5:7 6:7 7:7 8:2 9:2 10:7 11:7 12:7 13:6 14:6 15:2 16:7 17:7 18:7 19:8 20:6 21:2 22:7 23:7 24:7 25:8 26:7 27:2 28:7 29:7 30:7 31:8 32:2 33:2 34:7 35:7 36:7 39:10 40:18 
0.8413828638030019 1.056813904689729 0.8248824621072586 0 1:7 2:6 3:6 4:2 5:7 6:7 7:2 8:6 9:7 10:2 11:7 12:7 13:7 14:6 15:2 16:2 17:7 18:7 19:6 20:2 21:2 22:2 23:7 24:7 25:8 26:6 27:2 28:2 29:7 30:7 31:8 32:6 33:2 34:7 35:7 36:7 39:10 40:18 
0.841362546363901 1.057281870019794 0.8245317161042689 0 1:7 2:6 3:6 4:7 5:2 6:7 7:7 8:8 9:2 10:2 11:2 12:7 13:2 14:6 15:6 16:2 17:2 18:7 19:7 20:6 21:6 22:2 23:2 24:7 25:6 26:6 27:7 28:2 29:2 30:7 31:8 32:2 33:2 34:2 35:7 36:7 39:10 40:18 
0.8411077412785033 1.057633328502196 0.8245280819411821 0 1:7 2:6 3:8 4:6 5:7 6:7 7:7 8:7 9:6 10:6 11:7 12:7 13:7 14:6 15:6 16:6 17:2 18:7 19:2 20:8 21:6 22:6 23:2 24:7 25:7 26:6 27:2 28:7 29:2 30:7 31:6 32:6 33:6 34:2 35:2 36:7 39:10 40:18 
0.8413731377118955 1.074787341656752 0.8249718693483743 0 1:7 2:2 3:6 4:8 5:7 6:7 7:7 8:7 9:7 10:8 11:7 12:7 13:7 14:6 15:6 16:6 17:7 18:7 19:7 20:7 21:8 22:6 23:7 24:7 25:2 26:6 27:6 28:6 29:7 30:7 31:7 32:8 33:6 34:6 35:7 36:7 39:9 40:19 
0.8414055738403423 1.057419742801934 0.8249559973385884 0 1:7 2:6 3:2 4:6 5:8 6:7 7:7 8:7 9:2 10:2 11:8 12:7 13:7 14:6 15:2 16:7 17:8 18:7 19:6 20:6 21:2 22:7 23:8 24:7 25:7 26:6 27:2 28:7 29:2 30:7 31:6 32:6 33:6 34:7 35:6 36:2 39:6 40:22 
0.8408294478153708 1.057366904639981 0.8247451086739905 0 1:7 2:6 3:2 4:6 5:8 6:7 7:7 8:7 9:2 10:2 11:8 12:7 13:7 14:6 15:2 16:7 17:8 18:7 19:6 20:6 21:2 22:7 23:8 24:7 25:7 26:6 27:2 28:7 29:2 30:7 31:6 32:6 33:6 34:7 35:6 36:2 39:4 40:24 
0.8414945630932379 1.057447545274135 0.8248656220471817 0 1:7 2:3 3:8 4:6 5:6 6:6 7:7 8:7 9:7 10:7 11:6 12:8 13:7 14:6 15:6 16:7 17:6 18:2 19:7 20:7 21:2 22:7 23:8 24:2 25:6 26:6 27:2 28:6 29:8 30:7 31:7 32:6 33:2 34:2 35:8 36:7 39:4 40:24 
0.8413484485047973 1.057642542684429 0.8245309452424654 0 1:7 2:6 3:7 4:6 5:6 6:7 7:6 8:6 9:7 10:2 11:6 12:8 13:6 14:6 15:6 16:6 17:6 18:8 19:6 20:6 21:6 22:6 23:7 24:2 25:6 26:6 27:2 28:6 29:8 30:7 31:6 32:6 33:6 34:6 35:2 36:2 39:2 40:26 
0.840773570106343 1.074557892095606 0.8244498560862914 0 1:7 2:6 3:7 4:6 5:6 6:6 7:7 8:6 9:7 10:6 11:6 12:2 13:6 14:6 15:7 16:6 17:6 18:6 19:6 20:6 21:7 22:6 23:2 24:6 25:6 26:6 27:7 28:6 29:6 30:6 31:6 32:6 33:6 34:2 35:6 36:6 39:1 40:27 
0.8413828638030019 1.057312249233145 0.8249490919812259 0 1:7 2:7 3:7 4:6 5:1 6:2 7:7 8:7 9:7 10:6 11:1 12:2 13:7 14:7 15:7 16:6 17:2 18:2 19:7 20:7 21:7 22:6 23:6 24:2 25:7 26:7 27:7 28:2 29:6 30:2 31:7 32:7 33:7 34:2 35:6 36:1 39:43 
0.8630027694232612 1.057233455368334 0.8249735698006053 0 1:7 2:6 3:6 4:1 5:7 6:7 7:7 8:6 9:6 10:3 11:7 12:7 13:7 14:2 15:6 16:2 17:7 18:7 19:7 20:2 21:1 22:3 23:7 24:7 25:7 26:2 27:1 28:3 29:7 30:7 31:7 32:2 33:6 34:3 35:7 36:7 39:38 40:5 
0.8413262943191722 1.074783856199809 0.8249719865979401 0 1:7 2:6 3:2 4:2 5:7 6:2 7:7 8:6 9:6 10:1 11:7 12:2 13:7 14:6 15:6 16:6 17:7 18:2 19:7 20:6 21:6 22:6 23:7 24:2 25:7 26:2 27:6 28:1 29:7 30:2 31:7 32:2 33:6 34:3 35:7 36:7 39:38 40:5 
0.8407093900692741 1.074487093680935 0.8248656220471817 0 1:7 2:6 3:1 4:2 5:3 6:6 7:7 8:6 9:1 10:2 11:3 12:7 13:7 14:6 15:1 16:2 17:3 18:2 19:7 20:6 21:2 22:2 23:1 24:2 25:7 26:6 27:6 28:2 29:7 30:2 31:7 32:6 33:6 34:1 35:7 36:2 39:38 40:5 
0.8408317895202735 8.3721 8.3721 0 1:7 2:7 3:7 4:7 5:7 6:7 7:7 8:7 9:7 10:7 11:7 12:7 13:7 14:7 15:7 16:7 17:7 18:7 19:7 20:7 21:7 22:7 23:7 24:7 25:7 26:7 27:7 28:7 29:7 30:7 31:7 32:7 33:7 34:7 35:7 36:7 39:36 40:7 
0.8475706686755083 1.038242242124554 0.8103109512177592 0 1:7 2:7 3:7 4:7 5:7 6:7 7:7 8:7 9:7 10:7 11:7 12:7 13:7 14:7 15:7 16:7 17:7 18:7 19:7 20:7 21:7 22:7 23:7 24:7 25:7 26:7 27:7 28:7 29:7 30:7 31:7 32:7 33:7 34:7 35:7 36:7 39:28 40:15 
0.8106155081313027 1.019369624443774 0.7943258924022316 0 1:7 2:7 3:7 4:7 5:7 6:7 7:7 8:7 9:7 10:7 11:7 12:7 13:7 14:7 15:7 16:7 17:7 18:7 19:7 20:7 21:7 22:7 23:7 24:7 25:7 26:7 27:7 28:7 29:7 30:7 31:7 32:7 33:7 34:7 35:7 36:7 39:27 40:16 
0.8264674740099581 1.038506166318038 0.8325298918394131 0 1:7 2:7 3:7 4:7 5:7 6:7 7:7 8:7 9:7 10:7 11:7 12:7 13:7 14:7 15:7 16:7 17:7 18:7 19:7 20:7 21:7 22:7 23:7 24:7 25:7 26:7 27:7 28:7 29:7 30:7 31:7 32:7 33:7 34:7 35:7 36:7 39:26 40:17 
0.863145888571508 1.05736681113731 0.847033414233451 0 1:7 2:7 3:7 4:7 5:7 6:7 7:7 8:7 9:7 10:7 11:7 12:7 13:7 14:7 15:7 16:7 17:7 18:7 19:7 20:7 21:7 22:7 23:7 24:7 25:7 26:7 27:7 28:7 29:7 30:7 31:7 32:7 33:7 34:7 35:7 36:7 39:24 40:19 
0 0 0.8704174998879159 0 1:7 2:7 3:7 4:7 5:7 6:7 7:7 8:7 9:7 10:7 11:7 12:7 13:7 14:7 15:7 16:7 17:7 18:7 19:7 20:7 21:7 22:7 23:7 24:7 25:7 26:7 27:7 28:7 29:7 30:7 31:7 32:7 33:7 34:7 35:7 36:7 39:22 40:21 
0 0 8.3721 0 1:7 2:7 3:7 4:7 5:7 6:7 7:7 8:7 9:7 10:7 11:7 12:7 13:7 14:7 15:7 16:7 17:7 18:7 19:7 20:7 21:7 22:7 23:7 24:7 25:7 26:7 27:7 28:7 29:7 30:7 31:7 32:7 33:7 34:7 35:7 36:7 39:22 40:21 
0 1.057953884541395 8.3721 0 1:7 2:7 3:7 4:7 5:7 6:7 7:7 8:7 9:7 10:7 11:7 12:7 13:7 14:7 15:7 16:7 17:7 18:7 19:7 20:7 21:7 22:7 23:7 24:7 25:7 26:7 27:7 28:7 29:7 30:7 31:7 32:7 33:7 34:7 35:7 36:7 39:22 40:21 
0.8631370293839831 8.371363847785497 8.326639882895124 8.3721 1:7 2:7 3:7 4:7 5:7 6:7 7:7 8:7 9:7 10:7 11:7 12:7 13:7 14:7 15:7 16:7 17:7 18:7 19:7 20:7 21:7 22:7 23:7 24:7 25:7 26:7 27:7 28:7 29:7 30:7 31:7 32:7 33:7 34:7 35:7 36:7 39:22 40:21 
0.8254760004842646 1.038618236117918 0.8100549366666916 0 1:8 2:7 3:7 4:7 5:7 6:7 7:8 8:7 9:7 10:7 11:7 12:7 13:8 14:7 15:7 16:7 17:7 18:7 19:8 20:7 21:7 22:7 23:7 24:7 25:8 26:7 27:7 28:7 29:7 30:7 31:8 32:7 33:7 34:7 35:7 36:7 39:22 40:21 
0.8242763792371858 1.03552896669699 0.807531793008382 0 1:8 2:7 3:7 4:7 5:7 6:7 7:8 8:7 9:7 10:7 11:7 12:7 13:8 14:7 15:7 16:7 17:7 18:7 19:8 20:7 21:7 22:7 23:7 24:7 25:8 26:7 27:7 28:7 29:7 30:7 31:8 32:7 33:7 34:7 35:7 36:7 39:21 40:22 
0.8392175143636201 1.055014787471182 0.8229309437471749 0 1:8 2:7 3:7 4:7 5:7 6:7 7:8 8:8 9:7 10:7 11:7 12:7 13:8 14:7 15:7 16:7 17:7 18:7 19:8 20:7 21:7 22:7 23:7 24:7 25:8 26:7 27:7 28:7 29:7 30:7 31:8 32:7 33:7 34:7 35:7 36:7 39:20 40:23 
0.8414493420925117 1.057450699893087 0.8245927938043121 0 1:8 2:8 3:7 4:7 5:7 6:7 7:8 8:7 9:7 10:7 11:7 12:7 13:8 14:7 15:7 16:7 17:7 18:7 19:8 20:8 21:7 22:7 23:7 24:7 25:8 26:7 27:7 28:7 29:7 30:7 31:8 32:7 33:7 34:7 35:7 36:7 39:19 40:24 
0.8414651262973744 1.056994510102464 0.8248734567793777 8.3721 1:6 2:8 3:7 4:7 5:7 6:7 7:6 8:8 9:7 10:7 11:7 12:7 13:6 14:7 15:7 16:7 17:7 18:7 19:6 20:7 21:7 22:7 23:7 24:7 25:6 26:7 27:7 28:7 29:7 30:7 31:1 32:7 33:7 34:7 35:7 36:7 39:18 40:25 
0.8409471426538717 1.057342723521199 0.824960095514627 0 1:7 2:2 3:7 4:7 5:7 6:7 7:7 8:2 9:7 10:7 11:7 12:7 13:7 14:2 15:7 16:7 17:7 18:7 19:8 20:2 21:7 22:7 23:7 24:7 25:7 26:2 27:7 28:7 29:7 30:7 31:7 32:7 33:7 34:7 35:7 36:7 39:17 40:26 
0.8413484485047973 1.057628703412166 0.8248613868130309 0 1:7 2:2 3:7 4:7 5:7 6:7 7:7 8:2 9:7 10:7 11:7 12:7 13:7 14:2 15:7 16:7 17:7 18:7 19:7 20:2 21:7 22:7 23:7 24:7 25:8 26:2 27:7 28:7 29:7 30:7 31:7 32:2 33:7 34:7 35:7 36:7 39:16 40:27 
0.840607690868507 1.05762801914948 0.8249567884829442 0 1:2 2:2 3:7 4:7 5:7 6:7 7:7 8:2 9:7 10:7 11:7 12:7 13:7 14:2 15:7 16:7 17:7 18:7 19:7 20:2 21:7 22:7 23:7 24:7 25:7 26:2 27:7 28:7 29:7 30:7 31:8 32:2 33:7 34:7 35:7 36:7 39:16 40:27 
0.8407093896759886 1.057367046987054 0.824970612158357 0 1:2 2:2 3:7 4:7 5:7 6:7 7:2 8:7 9:7 10:7 11:7 12:7 13:7 14:2 15:7 16:7 17:7 18:7 19:7 20:2 21:7 22:7 23:7 24:7 25:7 26:2 27:7 28:7 29:7 30:7 31:7 32:2 33:7 34:7 35:7 36:7 39:16 40:27 
0.841487521796606 1.057162805436918 0.8246916670083504 0 1:2 2:6 3:2 4:7 5:7 6:7 7:2 8:2 9:7 10:7 11:7 12:7 13:2 14:2 15:3 16:7 17:7 18:7 19:7 20:7 21:6 22:7 23:7 24:7 25:2 26:7 27:7 28:7 29:7 30:7 31:2 32:7 33:7 34:7 35:7 36:7 39:14 40:29 
0.8628601681591037 1.056940265647998 0.8248846764712312 0 1:2 2:6 3:2 4:7 5:7 6:7 7:2 8:8 9:2 10:7 11:7 12:7 13:2 14:6 15:2 16:7 17:7 18:7 19:2 20:2 21:2 22:7 23:7 24:7 25:7 26:2 27:7 28:7 29:7 30:7 31:2 32:7 33:3 34:7 35:7 36:7 39:13 40:30 
0.8407093900692746 1.057564294381997 0.8249689811779419 0 1:2 2:6 3:2 4:7 5:7 6:7 7:2 8:2 9:7 10:7 11:7 12:7 13:2 14:2 15:3 16:7 17:7 18:7 19:7 20:7 21:6 22:7 23:7 24:7 25:1 26:7 27:7 28:7 29:7 30:7 31:2 32:7 33:7 34:7 35:7 36:7 39:11 40:32 
0.8408269669063293 1.057223189847542 0.8249471135149274 0 1:7 2:8 3:6 4:7 5:7 6:7 7:7 8:8 9:6 10:7 11:7 12:7 13:7 14:6 15:6 16:7 17:7 18:7 19:7 20:6 21:6 22:7 23:7 24:7 25:7 26:7 27:6 28:7 29:7 30:7 31:2 32:7 33:2 34:7 35:7 36:7 39:11 40:32 
0.8407037384560351 1.057483730976653 0.8249633478392735 0 1:7 2:8 3:7 4:3 5:7 6:7 7:7 8:8 9:6 10:3 11:7 12:7 13:7 14:8 15:6 16:2 17:7 18:7 19:7 20:8 21:6 22:6 23:7 24:7 25:7 26:6 27:6 28:7 29:7 30:7 31:7 32:6 33:6 34:7 35:7 36:7 39:11 40:32 
0.8413331272041824 1.057529373348778 0.8465788864060682 0 1:2 2:6 3:2 4:7 5:7 6:7 7:2 8:8 9:2 10:7 11:7 12:7 13:2 14:6 15:2 16:7 17:7 18:7 19:2 20:2 21:2 22:7 23:7 24:7 25:7 26:2 27:7 28:7 29:7 30:7 31:1 32:7 33:3 34:7 35:7 36:7 39:10 40:33 
0.862953673639787 1.074936211286879 0.8249640239289324 0 1:2 2:2 3:7 4:6 5:7 6:7 7:2 8:6 9:7 10:6 11:7 12:7 13:2 14:6 15:2 16:2 17:7 18:7 19:2 20:8 21:2 22:1 23:7 24:7 25:2 26:6 27:2 28:7 29:7 30:7 31:7 32:2 33:2 34:7 35:7 36:7 39:9 40:34 
0.8413262943191723 1.074751795949588 0.8249471135149274 0 1:2 2:7 3:8 4:6 5:3 6:7 7:2 8:7 9:6 10:6 11:2 12:7 13:2 14:2 15:6 16:6 17:6 18:7 19:2 20:6 21:7 22:6 23:7 24:7 25:2 26:6 27:7 28:6 29:7 30:7 31:2 32:8 33:2 34:6 35:7 36:7 39:9 40:34 
0.8413342246176319 1.057132001915194 0.8464367750143427 0 1:2 2:7 3:8 4:6 5:6 6:2 7:2 8:7 9:8 10:6 11:6 12:2 13:2 14:7 15:8 16:7 17:6 18:2 19:2 20:7 21:8 22:6 23:7 24:6 25:2 26:2 27:6 28:6 29:3 30:7 31:2 32:6 33:6 34:6 35:3 36:7 39:9 40:34 
0.8478471550716247 1.038444784580669 0.8096122638588312 0 1:7 2:7 3:7 4:7 5:7 6:7 7:7 8:7 9:7 10:7 11:7 12:7 13:7 14:7 15:7 16:7 17:7 18:7 19:7 20:7 21:7 22:7 23:7 24:7 25:7 26:7 27:7 28:7 29:7 30:7 31:7 32:7 33:7 34:7 35:7 36:7 39:7 40:36 
0.8255377300735426 1.038147268218248 0.8317234701249462 0 1:7 2:7 3:7 4:7 5:7 6:7 7:7 8:7 9:7 10:7 11:7 12:7 13:7 14:7 15:7 16:7 17:7 18:7 19:7 20:7 21:7 22:7 23:7 24:7 25:7 26:7 27:7 28:7 29:7 30:7 31:7 32:7 33:7 34:7 35:7 36:7 39:6 40:37 
0.8408294120558859 1.057396626010098 0.824545112078148 0 1:2 2:7 3:7 4:7 5:7 6:7 7:2 8:7 9:7 10:7 11:7 12:7 13:2 14:7 15:7 16:7 17:7 18:7 19:2 20:7 21:7 22:7 23:7 24:7 25:7 26:7 27:7 28:7 29:7 30:7 31:8 32:7 33:7 34:7 35:7 36:7 39:5 40:38 
0.8412978514502821 1.057622016175955 0.8244623241252484 0 1:2 2:7 3:7 4:7 5:7 6:7 7:2 8:7 9:7 10:7 11:7 12:7 13:2 14:7 15:7 16:7 17:7 18:7 19:2 20:7 21:7 22:7 23:7 24:7 25:2 26:7 27:7 28:7 29:7 30:7 31:7 32:7 33:7 34:7 35:7 36:7 39:5 40:38 
0.8407052076290061 1.056705793083092 0.8244401096674876 0 1:7 2:7 3:7 4:7 5:7 6:7 7:2 8:7 9:7 10:7 11:7 12:7 13:2 14:7 15:7 16:7 17:7 18:7 19:2 20:7 21:7 22:7 23:7 24:7 25:2 26:7 27:7 28:7 29:7 30:7 31:2 32:7 33:7 34:7 35:7 36:7 39:5 40:38 
0.8413594718858493 1.05758282284226 0.8246469493626398 0 1:7 2:7 3:7 4:7 5:7 6:7 7:7 8:7 9:7 10:7 11:7 12:7 13:2 14:7 15:7 16:7 17:7 18:7 19:2 20:7 21:7 22:7 23:7 24:7 25:1 26:7 27:7 28:7 29:7 30:7 31:2 32:7 33:7 34:7 35:7 36:7 39:5 40:38 
0.841388893245187 1.05758192449225 0.8248595917495365 0 1:6 2:7 3:7 4:7 5:7 6:7 7:7 8:7 9:7 10:7 11:7 12:7 13:7 14:7 15:7 16:7 17:7 18:7 19:2 20:7 21:7 22:7 23:7 24:7 25:2 26:7 27:7 28:7 29:7 30:7 31:1 32:7 33:7 34:7 35:7 36:7 39:5 40:38 
0.8407090826319825 1.056712656596049 0.8249616932231256 0 1:6 2:7 3:7 4:7 5:7 6:7 7:6 8:7 9:7 10:7 11:7 12:7 13:7 14:7 15:7 16:7 17:7 18:7 19:7 20:7 21:7 22:7 23:7 24:7 25:2 26:7 27:7 28:7 29:7 30:7 31:2 32:7 33:7 34:7 35:7 36:7 39:5 40:38 
0.8255981648268457 1.038418224303076 0.8100437858892175 0 1:8 2:7 3:7 4:7 5:7 6:7 7:8 8:7 9:7 10:7 11:7 12:7 13:8 14:7 15:7 16:7 17:7 18:7 19:8 20:7 21:7 22:7 23:7 24:7 25:8 26:7 27:7 28:7 29:7 30:7 31:8 32:7 33:7 34:7 35:7 36:7 39:5 40:38 
0.847846608199021 1.038292955544907 0.810067553834655 0 1:8 2:7 3:7 4:7 5:7 6:7 7:8 8:7 9:7 10:7 11:7 12:7 13:8 14:7 15:7 16:7 17:7 18:7 19:8 20:7 21:7 22:7 23:7 24:7 25:8 26:7 27:7 28:7 29:7 30:7 31:8 32:7 33:7 34:7 35:7 36:7 39:4 40:39 
0.8414293622425032 1.057131936623386 0.8244401096674876 0 1:6 2:2 3:7 4:7 5:7 6:7 7:6 8:6 9:7 10:7 11:7 12:7 13:6 14:7 15:7 16:7 17:7 18:7 19:6 20:7 21:7 22:7 23:7 24:7 25:6 26:7 27:7 28:7 29:7 30:7 31:7 32:7 33:7 34:7 35:7 36:7 39:3 40:40 
0.841487521796606 1.057518391156563 0.8244623241252484 0 1:6 2:8 3:7 4:7 5:7 6:7 7:6 8:2 9:7 10:7 11:7 12:7 13:6 14:2 15:7 16:7 17:7 18:7 19:6 20:6 21:7 22:7 23:7 24:7 25:6 26:7 27:7 28:7 29:7 30:7 31:6 32:7 33:7 34:7 35:7 36:7 39:3 40:40 
0.8408268835958683 1.057496100832856 0.8247675975375798 0 1:8 2:8 3:7 4:7 5:7 6:7 7:6 8:8 9:7 10:7 11:7 12:7 13:6 14:8 15:7 16:7 17:7 18:7 19:6 20:2 21:7 22:7 23:7 24:7 25:6 26:2 27:7 28:7 29:7 30:7 31:6 32:6 33:7 34:7 35:7 36:7 39:2 40:41 
0.840757932152569 1.057533044426526 0.846307360714432 0 1:8 2:8 3:7 4:7 5:7 6:7 7:8 8:8 9:7 10:7 11:7 12:7 13:6 14:8 15:7 16:7 17:7 18:7 19:6 20:8 21:7 22:7 23:7 24:7 25:6 26:8 27:7 28:7 29:7 30:7 31:6 32:2 33:7 34:7 35:7 36:7 39:1 40:42 
0.8413184252837995 1.057581858959723 0.8244498560862914 0 1:8 2:7 3:7 4:7 5:7 6:7 7:8 8:7 9:7 10:7 11:7 12:7 13:8 14:7 15:7 16:7 17:7 18:7 19:8 20:7 21:7 22:7 23:7 24:7 25:8 26:7 27:7 28:7 29:7 30:7 31:8 32:7 33:7 34:7 35:7 36:7 40:43 
-1.158651551674321 1.240527390027146 0.9954843115687328 0.0398344106421703 1:5 2:1 3:7 4:7 5:7 6:7 7:2 8:2 9:7 10:7 11:7 12:7 13:2 14:7 15:7 16:7 17:7 18:7 19:6 20:7 21:7 22:7 23:7 24:7 25:3 26:7 27:7 28:7 29:7 30:7 31:7 32:7 33:7 34:7 35:7 36:7 39:3 
-1.730085665232429 1.107808703690683 0 0 1:7 2:7 3:7 4:7 5:7 6:7 7:7 8:7 9:7 10:7 11:7 12:7 13:7 14:7 15:7 16:7 17:7 18:7 19:7 20:7 21:7 22:7 23:7 24:7 25:7 26:7 27:7 28:7 29:7 30:7 31:7 32:7 33:7 34:7 35:7 36:7 39:2 40:1 
-8.079318955992443 8.371200767910754 1.031542957819888 0.0354626924516771 1:7 2:7 3:7 4:7 5:7 6:7 7:7 8:7 9:7 10:7 11:7 12:7 13:7 14:7 15:7 16:7 17:7 18:7 19:7 20:7 21:7 22:7 23:7 24:7 25:7 26:7 27:7 28:7 29:7 30:7 31:7 32:7 33:7 34:7 35:7 36:7 39:2 40:1 
-1.159226447133711 1.240503274485385 0.9954207627822838 0.0398344106421703 1:7 2:7 3:4 4:2 5:2 6:7 7:7 8:2 9:8 10:8 11:8 12:7 13:7 14:1 15:8 16:8 17:7 18:7 19:7 20:8 21:8 22:7 23:7 24:7 25:7 26:8 27:7 28:7 29:7 30:7 31:7 32:7 33:7 34:7 35:7 39:3 
-1.178242699209555 8.3721 8.3721 0.03983274576440382 1:7 2:7 3:7 4:7 5:7 6:7 7:7 8:7 9:7 10:7 11:7 12:7 13:7 14:7 15:7 16:7 17:7 18:7 19:7 20:7 21:7 22:7 23:7 24:7 25:7 26:7 27:7 28:7 29:7 30:7 31:7 32:7 33:7 34:7 35:7 36:7 39:4 
-1.158658278655668 1.240268197189949 0.9954498698454453 0.0398344106421703 1:7 2:7 3:7 4:6 5:7 6:7 7:7 8:6 9:8 10:2 11:7 12:4 13:6 14:6 15:8 16:2 17:7 18:8 19:2 20:6 21:8 22:2 23:7 24:8 25:8 26:8 27:8 28:7 29:7 30:8 31:8 32:8 33:7 34:7 35:7 39:4 
-1.158640528114151 1.240402760200514 0.9953144897836822 0.0398344106421703 1:7 2:7 3:7 4:8 5:6 6:7 7:4 8:6 9:6 10:8 11:2 12:7 13:8 14:2 15:6 16:8 17:2 18:7 19:8 20:8 21:8 22:8 23:7 24:7 25:8 26:8 27:8 28:7 29:7 30:7 31:8 32:8 33:7 34:7 35:7 39:4 
-1.158642286761385 1.239954611764959 0.9951166395320163 0.0398350507988709 1:7 2:7 3:4 4:8 5:8 6:7 7:7 8:8 9:2 10:6 11:8 12:7 13:7 14:8 15:8 16:8 17:8 18:7 19:7 20:8 21:8 22:8 23:7 24:7 25:7 26:8 27:8 28:7 29:7 30:7 31:7 32:8 33:7 34:7 35:7 39:4 
-1.158692752605649 1.2398790436835 0.9951063776390384 0.03997262118752798 1:7 2:6 3:1 4:6 5:7 6:7 7:7 8:6 9:6 10:6 11:7 12:7 13:6 14:7 15:6 16:7 17:7 18:7 19:3 20:6 21:6 22:7 23:7 24:7 25:6 26:6 27:7 28:7 29:7 30:7 31:3 32:6 33:7 34:7 35:7 36:7 39:4 
-1.158669842885224 1.240248313820688 0.9953232187336047 0.04004901455858911 1:7 2:6 3:7 4:6 5:7 6:7 7:7 8:3 9:6 10:6 11:7 12:7 13:7 14:6 15:6 16:7 17:7 18:7 19:7 20:3 21:6 22:7 23:7 24:7 25:7 26:6 27:7 28:7 29:7 30:7 31:1 32:6 33:7 34:7 35:7 36:7 39:4 
-1.158669842885224 1.239764379096153 0.9959894728779742 0.04004901466149979 1:7 2:7 3:6 4:6 5:7 6:7 7:7 8:7 9:3 10:6 11:7 12:7 13:3 14:7 15:6 16:7 17:7 18:7 19:6 20:1 21:6 22:7 23:7 24:7 25:6 26:1 27:5 28:7 29:7 30:7 31:6 32:6 33:7 34:7 35:7 36:7 39:4 
-1.158640528114151 1.240242594904593 0.9959894728779742 0.04040172454509455 1:6 2:7 3:7 4:7 5:7 6:7 7:1 8:7 9:7 10:7 11:7 12:7 13:2 14:7 15:7 16:7 17:7 18:7 19:6 20:7 21:7 22:7 23:7 24:7 25:7 26:7 27:7 28:7 29:7 30:7 31:7 32:7 33:7 34:7 35:7 36:7 39:2 40:2 
-8.3721 1.092580887010504 1.033973638483593 0.0352496522307621 1:7 2:7 3:7 4:7 5:7 6:7 7:7 8:7 9:7 10:7 11:7 12:7 13:7 14:7 15:7 16:7 17:7 18:7 19:7 20:7 21:7 22:7 23:7 24:7 25:7 26:7 27:7 28:7 29:7 30:7 31:7 32:7 33:7 34:7 35:7 36:7 39:2 40:2 
-1.158522821033885 1.240528972829305 0.9959894728779742 0.04042807403808735 1:7 2:7 3:7 4:7 5:8 6:7 7:7 8:3 9:8 10:7 11:8 12:7 13:7 14:6 15:8 16:2 17:8 18:7 19:7 20:6 21:8 22:2 23:8 24:7 25:7 26:1 27:8 28:8 29:5 30:7 31:7 32:1 33:8 34:7 35:7 38:1 39:3 
-1.158564064749905 1.240518390666526 0.9959894728779742 0.03979381239181118 1:7 2:2 3:7 4:7 5:7 6:7 7:6 8:2 9:6 10:7 11:7 12:7 13:6 14:6 15:7 16:7 17:7 18:7 19:3 20:6 21:7 22:7 23:7 24:7 25:2 26:6 27:7 28:7 29:7 30:7 31:2 32:7 33:7 34:7 35:7 36:7 39:7 40:1 
-1.158892474862634 1.240479486418752 0.9959894728779742 0.03981713446701346 1:7 2:3 3:6 4:7 5:7 6:7 7:6 8:2 9:6 10:7 11:7 12:7 13:6 14:2 15:7 16:7 17:7 18:7 19:6 20:6 21:7 22:7 23:7 24:7 25:3 26:6 27:7 28:7 29:7 30:7 31:2 32:7 33:7 34:7 35:7 36:7 39:7 40:1 
-1.17431265755495 1.240134293540006 0.9959894728779742 0.03978995866839363 1:7 2:6 3:6 4:7 5:7 6:7 7:6 8:3 9:6 10:7 11:7 12:7 13:6 14:2 15:7 16:7 17:7 18:7 19:6 20:2 21:7 22:7 23:7 24:7 25:6 26:7 27:7 28:7 29:7 30:7 31:3 32:7 33:7 34:7 35:7 36:7 39:6 40:2 
-1.158658278655668 1.240517955514299 0.9954843115687328 0.03978971412971749 1:7 2:3 3:7 4:7 5:7 6:7 7:7 8:2 9:7 10:7 11:7 12:7 13:7 14:3 15:7 16:7 17:7 18:7 19:7 20:7 21:7 22:7 23:7 24:7 25:7 26:7 27:7 28:7 29:7 30:7 31:7 32:7 33:7 34:7 35:7 36:7 39:5 40:3 
-1.158657577410433 8.3721 0.9959894707018494 0.03978995470138564 1:7 2:7 3:7 4:7 5:7 6:7 7:7 8:7 9:7 10:7 11:7 12:7 13:7 14:7 15:7 16:7 17:7 18:7 19:7 20:7 21:7 22:7 23:7 24:7 25:7 26:7 27:7 28:7 29:7 30:7 31:7 32:7 33:7 34:7 35:7 36:7 39:4 40:4 
-1.158894500601322 1.240136129508224 0.9953478567322708 0.03982707839759342 1:8 2:7 3:7 4:7 5:7 6:7 7:2 8:7 9:7 10:7 11:7 12:7 13:6 14:7 15:7 16:7 17:7 18:7 19:8 20:7 21:7 22:7 23:7 24:7 25:8 26:7 27:7 28:7 29:7 30:7 31:7 32:7 33:7 34:7 35:7 36:7 39:1 40:7 
-1.158650505677616 1.240333371129016 0.995989471871038 0.03983441064217036 1:6 2:7 3:7 4:7 5:7 6:7 7:2 8:7 9:7 10:7 11:7 12:7 13:2 14:7 15:7 16:7 17:7 18:7 19:2 20:7 21:7 22:7 23:7 24:7 25:2 26:7 27:7 28:7 29:7 30:7 31:6 32:7 33:7 34:7 35:7 36:7 39:9 40:9 
-1.158640528114151 1.240576637705842 0.9959894715032527 0.04004901455858917 1:6 2:6 3:3 4:7 5:7 6:7 7:6 8:2 9:6 10:7 11:7 12:7 13:8 14:2 15:7 16:7 17:7 18:7 19:6 20:2 21:7 22:7 23:7 24:7 25:6 26:2 27:7 28:7 29:7 30:7 31:2 32:6 33:7 34:7 35:7 36:7 39:9 40:9 
-1.158646240168735 1.240612707531362 0.9959894714954505 0.0398350507988709 1:6 2:7 3:7 4:7 5:7 6:7 7:6 8:7 9:7 10:7 11:7 12:7 13:1 14:7 15:7 16:7 17:7 18:7 19:2 20:7 21:7 22:7 23:7 24:7 25:7 26:7 27:7 28:7 29:7 30:7 31:7 32:7 33:7 34:7 35:7 36:7 39:3 40:15 
-1.159226447127806 1.240612714562691 0.9953448464350833 0.03982768411786108 1:7 2:7 3:7 4:7 5:7 6:7 7:7 8:7 9:7 10:7 11:7 12:7 13:7 14:7 15:7 16:7 17:7 18:7 19:2 20:7 21:7 22:7 23:7 24:7 25:7 26:7 27:7 28:7 29:7 30:7 31:7 32:7 33:7 34:7 35:7 36:7 39:3 40:15 
-1.158597537837648 1.240206077138833 0.9959894714954505 0.04014561401996053 1:7 2:7 3:7 4:7 5:7 6:7 7:3 8:7 9:7 10:7 11:7 12:7 13:3 14:7 15:7 16:7 17:7 18:7 19:6 20:7 21:7 22:7 23:7 24:7 25:7 26:7 27:7 28:7 29:7 30:7 31:7 32:7 33:7 34:7 35:7 36:7 39:3 40:15 
-1.509346312848385 0 0 0 1:7 2:7 3:7 4:7 5:7 6:7 7:7 8:7 9:7 10:7 11:7 12:7 13:7 14:7 15:7 16:7 17:7 18:7 19:7 20:7 21:7 22:7 23:7 24:7 25:7 26:7 27:7 28:7 29:7 30:7 31:7 32:7 33:7 34:7 35:7 36:7 39:3 40:15 
-8.038007771479888 1.240194606547591 0.9951064941482156 0.03978683919328535 1:7 2:7 3:7 4:7 5:7 6:7 7:7 8:7 9:7 10:7 11:7 12:7 13:7 14:7 15:7 16:7 17:7 18:7 19:7 20:7 21:7 22:7 23:7 24:7 25:7 26:7 27:7 28:7 29:7 30:7 31:7 32:7 33:7 34:7 35:7 36:7 39:3 40:15 
-1.158892284392067 1.239812528719113 0.9954333779753737 0.03978688255978502 1:8 2:7 3:7 4:7 5:7 6:7 7:8 8:8 9:7 10:7 11:7 12:7 13:7 14:7 15:7 16:7 17:7 18:7 19:3 20:7 21:7 22:7 23:7 24:7 25:7 26:7 27:7 28:7 29:7 30:7 31:8 32:7 33:7 34:7 35:7 36:7 39:1 40:17 
-1.159423903096259 1.240206745788931 0.99524332947987 0.03976260122958702 1:7 2:8 3:7 4:7 5:7 6:7 7:7 8:8 9:7 10:7 11:7 12:7 13:7 14:7 15:7 16:7 17:7 18:7 19:5 20:7 21:7 22:7 23:7 24:7 25:7 26:7 27:7 28:7 29:7 30:7 31:7 32:7 33:7 34:7 35:7 36:7 39:1 40:17 
-1.156097469333584 8.3721 8.3721 0.0390644094775297 1:7 2:7 3:7 4:7 5:7 6:7 7:7 8:7 9:7 10:7 11:7 12:7 13:7 14:7 15:7 16:7 17:7 18:7 19:7 20:7 21:7 22:7 23:7 24:7 25:7 26:7 27:7 28:7 29:7 30:7 31:7 32:7 33:7 34:7 35:7 36:7 39:1 40:17 
-1.137496580516463 1.268413547124088 1.013976715277598 0.03907134955825132 1:7 2:7 3:7 4:7 5:7 6:7 7:7 8:7 9:7 10:7 11:7 12:7 13:7 14:7 15:7 16:7 17:7 18:7 19:7 20:7 21:7 22:7 23:7 24:7 25:7 26:7 27:7 28:7 29:7 30:7 31:7 32:7 33:7 34:7 35:7 36:7 40:18 
-1.137890976413664 1.219395501630772 0.9776332582009426 0.0390891112204198 1:8 2:7 3:7 4:7 5:7 6:7 7:8 8:7 9:7 10:7 11:7 12:7 13:7 14:7 15:7 16:7 17:7 18:7 19:6 20:7 21:7 22:7 23:7 24:7 25:7 26:7 27:7 28:7 29:7 30:7 31:7 32:7 33:7 34:7 35:7 36:7 39:16 40:1 
-1.272915016499738 1.231079853198141 0.8561470979918048 0.0342129930296565 1:7 2:7 3:7 4:7 5:7 6:7 7:7 8:7 9:7 10:7 11:7 12:7 13:7 14:7 15:7 16:7 17:7 18:7 19:6 20:7 21:7 22:7 23:7 24:7 25:7 26:7 27:7 28:7 29:7 30:7 31:7 32:7 33:7 34:7 35:7 36:7 39:16 40:1 
-1.156474988700309 1.237236574514109 1.011752266419161 0.0396885118664192 1:6 2:7 3:7 4:7 5:7 6:7 7:6 8:7 9:7 10:7 11:7 12:7 13:6 14:7 15:7 16:7 17:7 18:7 19:6 20:7 21:7 22:7 23:7 24:7 25:7 26:7 27:7 28:7 29:7 30:7 31:7 32:7 33:7 34:7 35:7 36:7 39:16 40:1 
-8.3721 8.3721 1.156517648030214 0 1:7 2:7 3:7 4:7 5:7 6:7 7:7 8:7 9:7 10:7 11:7 12:7 13:7 14:7 15:7 16:7 17:7 18:7 19:7 20:7 21:7 22:7 23:7 24:7 25:7 26:7 27:7 28:7 29:7 30:7 31:7 32:7 33:7 34:7 35:7 36:7 39:16 40:1 
-8.3721 8.3721 8.268043987572856 0.035132717224127 1:7 2:7 3:7 4:7 5:7 6:7 7:7 8:7 9:7 10:7 11:7 12:7 13:7 14:7 15:7 16:7 17:7 18:7 19:7 20:7 21:7 22:7 23:7 24:7 25:7 26:7 27:7 28:7 29:7 30:7 31:7 32:7 33:7 34:7 35:7 36:7 39:16 40:1 
-1.158697026628854 1.240479486461641 0.9951249251324402 0.03980944083802285 1:3 2:6 3:7 4:2 5:7 6:7 7:7 8:6 9:8 10:7 11:7 12:7 13:7 14:6 15:8 16:7 17:7 18:7 19:7 20:6 21:8 22:7 23:7 24:7 25:7 26:1 27:7 28:7 29:7 30:7 31:7 32:7 33:7 34:7 35:7 36:7 39:14 40:3 
-1.158658278655668 1.240612714568404 0.9954644802585999 0.03969368041050048 1:3 2:7 3:1 4:7 5:7 6:7 7:6 8:7 9:7 10:7 11:7 12:7 13:6 14:3 15:7 16:7 17:7 18:7 19:6 20:6 21:8 22:7 23:7 24:7 25:6 26:6 27:8 28:7 29:7 30:7 31:6 32:6 33:7 34:7 35:7 36:7 39:14 40:3 
-1.174341302269782 1.240479486418774 0.9958169030741558 0.03969350957835133 1:7 2:7 3:7 4:7 5:7 6:7 7:7 8:2 9:7 10:7 11:7 12:7 13:7 14:8 15:7 16:7 17:7 18:7 19:7 20:7 21:7 22:7 23:7 24:7 25:7 26:7 27:7 28:7 29:7 30:7 31:1 32:7 33:7 34:7 35:7 36:7 39:14 40:3 
-1.158686947010077 1.240206077138833 0.9958167698371856 0.03980944070298381 1:7 2:7 3:7 4:7 5:7 6:7 7:7 8:3 9:8 10:7 11:7 12:7 13:3 14:3 15:8 16:7 17:7 18:3 19:3 20:7 21:8 22:7 23:7 24:7 25:7 26:8 27:8 28:7 29:7 30:7 31:8 32:7 33:8 34:7 35:7 38:10 39:7 
-1.158666037799798 1.240198971590999 0.9958166615711408 0.03979223342160226 1:7 2:3 3:7 4:7 5:8 6:7 7:7 8:7 9:8 10:7 11:8 12:7 13:3 14:7 15:8 16:7 17:8 18:7 19:6 20:7 21:8 22:7 23:8 24:7 25:6 26:7 27:8 28:7 29:2 30:7 31:6 32:7 33:6 34:8 35:2 36:7 39:8 40:9 
-1.159440800072056 1.240195693396707 0.9958166615711408 0.03983441064217036 1:7 2:7 3:7 4:8 5:8 6:7 7:7 8:3 9:8 10:7 11:8 12:7 13:3 14:7 15:7 16:8 17:8 18:3 19:6 20:7 21:8 22:7 23:8 24:6 25:6 26:7 27:8 28:7 29:8 30:7 31:6 32:7 33:8 34:7 35:8 38:6 39:11 
-1.159290609930725 1.240580658119049 0.995311982233191 0.03978200925772568 1:7 2:7 3:7 4:8 5:8 6:7 7:7 8:3 9:7 10:7 11:8 12:7 13:3 14:6 15:7 16:8 17:7 18:3 19:6 20:6 21:7 22:8 23:7 24:6 25:7 26:6 27:7 28:8 29:7 30:7 31:7 32:6 33:7 34:8 35:7 38:5 39:12 
-1.159152079873018 1.240568511913944 0.9951063776390384 0.03978703955829527 1:7 2:7 3:7 4:8 5:8 6:7 7:7 8:3 9:6 10:7 11:8 12:7 13:3 14:6 15:6 16:7 17:8 18:3 19:6 20:7 21:6 22:7 23:8 24:7 25:7 26:7 27:6 28:7 29:8 30:7 31:6 32:7 33:6 34:8 35:6 38:4 39:13 
-1.15932505318363 1.240514574124249 0.9958166615711407 0.03978968618866513 1:7 2:7 3:7 4:8 5:7 6:7 7:7 8:3 9:6 10:6 11:7 12:7 13:3 14:6 15:7 16:6 17:7 18:3 19:7 20:7 21:7 22:6 23:7 24:6 25:7 26:6 27:7 28:6 29:8 30:6 31:6 32:2 33:7 34:6 35:6 38:3 39:14 
-1.159322585904591 1.240356128797393 0.9958166615711407 0.03978968596891974 1:7 2:7 3:7 4:8 5:6 6:7 7:7 8:3 9:6 10:7 11:6 12:7 13:3 14:7 15:7 16:7 17:6 18:7 19:6 20:7 21:6 22:7 23:6 24:7 25:6 26:6 27:2 28:7 29:6 30:7 31:6 32:2 33:1 34:7 35:7 38:2 39:15 
-1.159453695081009 1.240356128797393 0.9958166251665448 0.03978971411448368 1:7 2:7 3:7 4:8 5:6 6:7 7:7 8:3 9:7 10:7 11:7 12:7 13:7 14:6 15:7 16:6 17:7 18:8 19:7 20:6 21:6 22:2 23:7 24:8 25:7 26:6 27:2 28:1 29:7 30:8 31:7 32:6 33:6 34:6 35:7 38:1 39:16 
-1.158685392178367 1.24017825839781 0.9958166251665448 0.03979223342160226 1:2 2:7 3:7 4:7 5:7 6:7 7:7 8:7 9:7 10:7 11:7 12:7 13:7 14:2 15:7 16:7 17:7 18:7 19:6 20:2 21:7 22:7 23:7 24:7 25:6 26:2 27:7 28:7 29:7 30:7 31:3 32:2 33:7 34:7 35:7 36:7 39:12 
-1.158536166577379 1.24017825839781 0.9958164675793154 0.03979353739548785 1:6 2:7 3:7 4:7 5:7 6:7 7:2 8:7 9:7 10:7 11:7 12:7 13:5 14:7 15:7 16:7 17:7 18:7 19:2 20:7 21:7 22:7 23:7 24:7 25:6 26:7 27:7 28:7 29:7 30:7 31:2 32:7 33:7 34:7 35:7 36:7 39:8 40:4 
-1.158666890653021 1.240207104329901 0.9958164675793154 0.03979381239181112 1:3 2:7 3:7 4:7 5:7 6:7 7:7 8:7 9:7 10:7 11:7 12:7 13:2 14:7 15:7 16:7 17:7 18:7 19:7 20:7 21:7 22:7 23:7 24:7 25:3 26:7 27:7 28:7 29:7 30:7 31:3 32:7 33:7 34:7 35:7 36:7 39:8 40:4 
-1.158652625054189 1.240356128797393 0.9958164675793154 0.03979381239181112 1:7 2:7 3:7 4:7 5:7 6:7 7:2 8:7 9:7 10:7 11:7 12:7 13:2 14:7 15:7 16:7 17:7 18:7 19:2 20:7 21:7 22:7 23:7 24:7 25:7 26:7 27:7 28:7 29:7 30:7 31:7 32:7 33:7 34:7 35:7 36:7 39:8 40:4 
-1.159292105542826 8.3721 0.9950673953029038 0.03979223342156451 1:7 2:7 3:7 4:7 5:7 6:7 7:7 8:7 9:7 10:7 11:7 12:7 13:7 14:7 15:7 16:7 17:7 18:7 19:7 20:7 21:7 22:7 23:7 24:7 25:7 26:7 27:7 28:7 29:7 30:7 31:7 32:7 33:7 34:7 35:7 36:7 39:8 40:4 
-1.158653817259039 1.240193281538507 0.9958164675793154 0.03979381239181112 1:7 2:8 3:7 4:7 5:7 6:7 7:7 8:8 9:7 10:7 11:7 12:7 13:7 14:8 15:7 16:7 17:7 18:7 19:7 20:7 21:7 22:7 23:7 24:7 25:2 26:7 27:7 28:7 29:7 30:7 31:2 32:2 33:7 34:7 35:7 36:7 39:3 40:9 
-1.158645061212709 1.240183438721999 0.9956890775087973 0.03980944070298392 1:7 2:2 3:2 4:7 5:7 6:7 7:7 8:7 9:7 10:7 11:7 12:7 13:7 14:7 15:7 16:7 17:7 18:7 19:7 20:7 21:7 22:7 23:7 24:7 25:7 26:7 27:7 28:7 29:7 30:7 31:7 32:7 33:7 34:7 35:7 36:7 39:3 40:9 
-1.158894500601322 1.240580658119049 0.9956890775087973 0.0398158636720497 1:7 2:3 3:2 4:7 5:7 6:7 7:7 8:3 9:7 10:7 11:7 12:7 13:7 14:3 15:7 16:7 17:7 18:7 19:7 20:2 21:7 22:7 23:7 24:7 25:7 26:2 27:7 28:7 29:7 30:7 31:5 32:2 33:7 34:7 35:7 36:7 39:28 
-8.3721 8.3721 0.9956549427986827 0.03981713446701335 1:7 2:7 3:2 4:7 5:7 6:7 7:7 8:7 9:7 10:7 11:7 12:7 13:7 14:7 15:7 16:7 17:7 18:7 19:7 20:7 21:7 22:7 23:7 24:7 25:7 26:7 27:7 28:7 29:7 30:7 31:7 32:7 33:7 34:7 35:7 36:7 39:28 
-1.158697024982341 1.240623169957181 0.9956544799522923 0.03969350957835133 1:3 2:7 3:7 4:7 5:7 6:7 7:2 8:7 9:7 10:7 11:7 12:7 13:2 14:7 15:7 16:7 17:7 18:7 19:2 20:7 21:7 22:7 23:7 24:7 25:6 26:7 27:7 28:7 29:7 30:7 31:7 32:7 33:7 34:7 35:7 36:7 39:23 40:5 
-8.3721 1.500335575197143 1 0 1:7 2:7 3:7 4:7 5:7 6:7 7:7 8:7 9:7 10:7 11:7 12:7 13:7 14:7 15:7 16:7 17:7 18:7 19:7 20:7 21:7 22:7 23:7 24:7 25:7 26:7 27:7 28:7 29:7 30:7 31:7 32:7 33:7 34:7 35:7 36:7 39:23 40:5 
-8.3721 8.112131698577038 8.367667249591891 0.0397896790262226 1:7 2:7 3:7 4:7 5:7 6:7 7:7 8:7 9:7 10:7 11:7 12:7 13:7 14:7 15:7 16:7 17:7 18:7 19:7 20:7 21:7 22:7 23:7 24:7 25:7 26:7 27:7 28:7 29:7 30:7 31:7 32:7 33:7 34:7 35:7 36:7 39:23 40:5 
-1.158651646328529 1.240136115774213 0.9955142310930104 0.03979223342156513 1:7 2:6 3:8 4:6 5:7 6:7 7:7 8:7 9:6 10:6 11:7 12:7 13:7 14:6 15:6 16:6 17:2 18:7 19:2 20:8 21:6 22:6 23:2 24:7 25:7 26:6 27:2 28:7 29:2 30:7 31:6 32:6 33:6 34:2 35:2 36:7 39:8 40:20 
-1.15929003434512 1.240134293540006 0.9954893919371594 0.0398344106421703 1:7 2:2 3:8 4:6 5:6 6:2 7:6 8:7 9:6 10:2 11:7 12:2 13:2 14:6 15:6 16:6 17:2 18:2 19:6 20:8 21:6 22:6 23:2 24:2 25:7 26:8 27:2 28:7 29:2 30:2 31:6 32:8 33:6 34:2 35:2 36:2 39:8 40:20 
-1.15853560667101 1.240111202440791 0.9954713970746811 0.04046305296087072 1:7 2:6 3:8 4:6 5:6 6:2 7:6 8:7 9:8 10:2 11:7 12:2 13:7 14:6 15:8 16:6 17:2 18:2 19:3 20:6 21:8 22:6 23:2 24:2 25:7 26:6 27:8 28:7 29:2 30:2 31:6 32:6 33:6 34:2 35:2 36:2 39:8 40:20 
-1.158607342890998 1.240261101426926 0.9954713970746811 0.03982768411816817 1:7 2:3 3:6 4:8 5:6 6:2 7:1 8:7 9:6 10:8 11:7 12:2 13:3 14:6 15:6 16:6 17:2 18:2 19:3 20:6 21:6 22:6 23:2 24:2 25:7 26:6 27:8 28:7 29:2 30:2 31:6 32:6 33:2 34:2 35:2 36:2 39:8 40:20 
-1.158666584133041 1.240503274485385 0.9954680460091725 0.03978967902622249 1:7 2:3 3:6 4:6 5:6 6:2 7:3 8:7 9:6 10:8 11:7 12:2 13:3 14:6 15:6 16:2 17:2 18:2 19:6 20:7 21:6 22:2 23:2 24:2 25:7 26:7 27:8 28:7 29:2 30:2 31:6 32:7 33:8 34:7 35:2 36:2 39:8 40:20 
-1.158666584133041 1.240608261654854 0.9954334905159594 0.03979381239181112 1:7 2:6 3:7 4:6 5:2 6:2 7:3 8:7 9:7 10:8 11:7 12:2 13:7 14:6 15:7 16:8 17:7 18:2 19:6 20:2 21:6 22:8 23:7 24:2 25:7 26:2 27:2 28:8 29:7 30:2 31:6 32:2 33:7 34:8 35:7 36:2 39:7 40:21 
-1.15863201932673 1.240530493696938 0.9954211182876467 0.03979729061244874 1:7 2:3 3:6 4:6 5:6 6:6 7:7 8:7 9:7 10:7 11:6 12:8 13:7 14:6 15:6 16:7 17:6 18:2 19:7 20:7 21:2 22:7 23:8 24:2 25:6 26:6 27:2 28:6 29:8 30:7 31:7 32:6 33:2 34:2 35:8 36:7 39:5 40:23 
-1.158589070804413 1.240573163389092 0.9954210333012511 0.0398158636720497 1:7 2:7 3:7 4:6 5:2 6:7 7:7 8:3 9:8 10:8 11:7 12:7 13:3 14:8 15:8 16:7 17:6 18:7 19:7 20:8 21:7 22:6 23:6 24:7 25:6 26:7 27:6 28:6 29:6 30:6 31:7 32:6 33:7 34:6 35:6 38:4 39:24 
-1.158673705680828 1.240205121390539 0.9953276145914217 0.0398276841180607 1:7 2:7 3:7 4:8 5:7 6:7 7:7 8:3 9:8 10:8 11:7 12:7 13:7 14:7 15:8 16:7 17:6 18:3 19:7 20:6 21:7 22:6 23:6 24:3 25:6 26:7 27:6 28:7 29:6 30:6 31:7 32:6 33:2 34:7 35:6 38:3 39:25 
-1.159168305024885 1.240202784911293 0.9954207627822965 0.03978971411448357 1:7 2:6 3:2 4:6 5:8 6:7 7:7 8:7 9:2 10:2 11:8 12:7 13:7 14:6 15:2 16:7 17:8 18:7 19:6 20:6 21:2 22:7 23:8 24:7 25:7 26:6 27:2 28:7 29:2 30:7 31:6 32:6 33:6 34:7 35:6 36:2 39:2 40:26 
-1.158508259165527 1.240479486461641 0.9950772245907445 0.03978968618866507 1:7 2:6 3:6 4:2 5:7 6:8 7:3 8:7 9:6 10:2 11:7 12:2 13:3 14:6 15:6 16:6 17:7 18:6 19:6 20:6 21:6 22:6 23:8 24:2 25:7 26:6 27:2 28:6 29:8 30:7 31:6 32:6 33:6 34:7 35:8 36:2 39:2 40:26 
-1.159408786370552 1.240479486418774 0.9954415866986257 0.0398343597905283 1:7 2:6 3:6 4:6 5:6 6:8 7:7 8:7 9:6 10:2 11:6 12:8 13:7 14:6 15:6 16:6 17:7 18:8 19:7 20:6 21:6 22:6 23:7 24:2 25:7 26:6 27:2 28:6 29:2 30:7 31:7 32:6 33:6 34:6 35:8 36:2 39:2 40:26 
-1.158666584133041 1.240183438721999 0.9950772246015128 0.03982707839759342 1:7 2:7 3:6 4:6 5:6 6:7 7:6 8:7 9:6 10:2 11:6 12:2 13:6 14:7 15:6 16:6 17:6 18:8 19:6 20:7 21:6 22:6 23:7 24:2 25:6 26:7 27:2 28:6 29:8 30:7 31:6 32:6 33:6 34:6 35:8 36:2 39:2 40:26 
-1.158521384839939 1.240218396401547 0.9951811054263985 0.03982768411804072 1:8 2:2 3:7 4:7 5:7 6:7 7:8 8:2 9:7 10:7 11:7 12:7 13:8 14:2 15:7 16:7 17:7 18:7 19:8 20:2 21:7 22:7 23:7 24:7 25:6 26:2 27:7 28:7 29:7 30:7 31:6 32:7 33:7 34:7 35:7 36:7 40:28 
-1.158642286761385 1.240136129296609 0.9954644802585999 0.03978968596891963 1:6 2:2 3:7 4:7 5:7 6:7 7:6 8:2 9:7 10:7 11:7 12:7 13:6 14:2 15:7 16:7 17:7 18:7 19:8 20:2 21:7 22:7 23:7 24:7 25:2 26:2 27:7 28:7 29:7 30:7 31:2 32:7 33:7 34:7 35:7 36:7 40:28 
-1.159226429893657 1.240193281538507 0.9954509486796383 0.04041430036182653 1:6 2:7 3:7 4:7 5:7 6:7 7:6 8:7 9:7 10:7 11:7 12:7 13:6 14:7 15:7 16:7 17:7 18:7 19:8 20:2 21:7 22:7 23:7 24:7 25:8 26:2 27:7 28:7 29:7 30:7 31:8 32:7 33:7 34:7 35:7 36:7 40:28 
-1.15864665675382 1.240189669138685 0.9956143085311946 0.03978970973381246 1:7 2:6 3:7 4:7 5:7 6:7 7:7 8:2 9:7 10:7 11:7 12:7 13:6 14:7 15:7 16:7 17:7 18:7 19:2 20:2 21:7 22:7 23:7 24:7 25:7 26:2 27:7 28:7 29:7 30:7 31:7 32:7 33:7 34:7 35:7 36:7 40:28 
-1.158524188850119 1.240580914528068 0.9953232187336047 0.03979381239181118 1:2 2:8 3:7 4:7 5:7 6:7 7:2 8:2 9:7 10:7 11:7 12:7 13:2 14:7 15:7 16:7 17:7 18:7 19:2 20:2 21:7 22:7 23:7 24:7 25:6 26:2 27:7 28:7 29:7 30:7 31:6 32:7 33:7 34:7 35:7 36:7 40:28 
-1.159170456464273 1.240518251101563 0.9958163552029899 0.03978967441688908 1:6 2:8 3:7 4:7 5:7 6:7 7:6 8:2 9:7 10:7 11:7 12:7 13:6 14:7 15:7 16:7 17:7 18:7 19:2 20:2 21:7 22:7 23:7 24:7 25:6 26:2 27:7 28:7 29:7 30:7 31:6 32:7 33:7 34:7 35:7 36:7 40:28 
-1.159169014730758 1.240333371082083 0.9953444653604769 0.03982684929588004 1:6 2:2 3:7 4:7 5:7 6:7 7:6 8:2 9:7 10:7 11:7 12:7 13:6 14:7 15:7 16:7 17:7 18:7 19:2 20:7 21:7 22:7 23:7 24:7 25:6 26:2 27:7 28:7 29:7 30:7 31:6 32:7 33:7 34:7 35:7 36:7 40:28 
-1.158669842885224 1.240195693396707 0.9953144897836821 0.0398158636720497 1:7 2:2 3:7 4:7 5:7 6:7 7:6 8:2 9:7 10:7 11:7 12:7 13:6 14:2 15:7 16:7 17:7 18:7 19:2 20:7 21:7 22:7 23:7 24:7 25:6 26:2 27:7 28:7 29:7 30:7 31:6 32:7 33:7 34:7 35:7 36:7 40:28 
-1.158652625054189 1.240242364417618 0.9953151719486271 0.03978967889463103 1:6 2:7 3:7 4:7 5:7 6:7 7:6 8:7 9:7 10:7 11:7 12:7 13:6 14:7 15:7 16:7 17:7 18:7 19:2 20:7 21:7 22:7 23:7 24:7 25:6 26:2 27:7 28:7 29:7 30:7 31:6 32:7 33:7 34:7 35:7 36:7 40:28 
-1.158272284406749 1.23998719276711 0.9949926089036903 0.0404147643903614 1:6 2:8 3:7 4:7 5:7 6:7 7:8 8:8 9:7 10:7 11:7 12:7 13:8 14:6 15:7 16:7 17:7 18:7 19:8 20:7 21:7 22:7 23:7 24:7 25:8 26:2 27:7 28:7 29:7 30:7 31:8 32:7 33:7 34:7 35:7 36:7 40:28 
-1.158506195075166 1.240136115774213 0.9953151719486271 0.03982768411816823 1:8 2:2 3:7 4:7 5:7 6:7 7:8 8:8 9:7 10:7 11:7 12:7 13:7 14:6 15:7 16:7 17:7 18:7 19:8 20:7 21:7 22:7 23:7 24:7 25:7 26:2 27:7 28:7 29:7 30:7 31:7 32:7 33:7 34:7 35:7 36:7 40:28 
-1.158902594121706 1.239988389926802 0.9954496746459996 0.03981329105951459 1:8 2:8 3:7 4:7 5:7 6:7 7:8 8:8 9:7 10:7 11:7 12:7 13:8 14:6 15:7 16:7 17:7 18:7 19:8 20:7 21:7 22:7 23:7 24:7 25:8 26:2 27:7 28:7 29:7 30:7 31:8 32:7 33:7 34:7 35:7 36:7 40:28 
-1.158702148505984 1.240514122870074 0.9954516190894833 0.03981600648303751 1:7 2:1 3:7 4:7 5:7 6:7 7:7 8:1 9:7 10:7 11:7 12:7 13:7 14:6 15:7 16:7 17:7 18:7 19:4 20:7 21:7 22:7 23:7 24:7 25:7 26:2 27:7 28:7 29:7 30:7 31:7 32:7 33:7 34:7 35:7 36:7 40:28 
-1.159172997803146 1.240281996972942 0.9959894425512895 0.03980943961615119 1:7 2:7 3:7 4:7 5:7 6:7 7:7 8:7 9:7 10:7 11:7 12:7 13:7 14:7 15:7 16:7 17:7 18:7 19:7 20:7 21:7 22:7 23:7 24:7 25:7 26:2 27:7 28:7 29:7 30:7 31:7 32:7 33:7 34:7 35:7 36:7 40:28 
-1.158716452043271 1.24020004472248 0.9952372658022063 0.03982768411816828 1:7 2:7 3:7 4:7 5:7 6:7 7:7 8:7 9:7 10:7 11:7 12:7 13:7 14:7 15:7 16:7 17:7 18:7 19:7 20:7 21:7 22:7 23:7 24:7 25:7 26:7 27:7 28:7 29:7 30:7 31:7 32:7 33:7 34:7 35:7 36:7 40:28 
-1.17433821861318 1.240355359293944 0.9952364902099404 0.03978703955829543 1:7 2:6 3:6 4:1 5:7 6:7 7:7 8:6 9:6 10:3 11:7 12:7 13:7 14:2 15:6 16:2 17:7 18:7 19:7 20:2 21:1 22:3 23:7 24:7 25:7 26:2 27:1 28:3 29:7 30:7 31:7 32:2 33:6 34:3 35:7 36:7 39:39 40:4 
-1.158651089159743 1.240172563004032 0.9951125700686836 0.0398344106421703 1:7 2:8 3:1 4:8 5:7 6:6 7:7 8:8 9:1 10:2 11:7 12:6 13:7 14:6 15:8 16:1 17:2 18:6 19:7 20:6 21:1 22:7 23:2 24:6 25:7 26:6 27:1 28:2 29:3 30:6 31:7 32:6 33:1 34:2 35:3 36:6 39:38 40:5 
-1.15889410724113 1.240132649523946 0.9951063776390384 0.03983435973501936 1:7 2:7 3:6 4:8 5:1 6:2 7:7 8:7 9:6 10:1 11:7 12:2 13:7 14:7 15:6 16:1 17:2 18:3 19:7 20:7 21:6 22:1 23:2 24:3 25:7 26:7 27:6 28:2 29:2 30:3 31:7 32:7 33:6 34:6 35:2 36:3 39:38 40:5 
-1.13752758894329 1.231697269137364 0.9773830219669635 0.03908139445559783 1:7 2:7 3:7 4:7 5:7 6:7 7:7 8:7 9:7 10:7 11:7 12:7 13:7 14:7 15:7 16:7 17:7 18:7 19:7 20:7 21:7 22:7 23:7 24:7 25:7 26:7 27:7 28:7 29:7 30:7 31:7 32:7 33:7 34:7 35:7 36:7 39:30 40:13 
-1.153244940249728 1.217180068481662 0.9773830219669634 0.03908660480227916 1:7 2:7 3:7 4:7 5:7 6:7 7:7 8:7 9:7 10:7 11:7 12:7 13:7 14:7 15:7 16:7 17:7 18:7 19:7 20:7 21:7 22:7 23:7 24:7 25:7 26:7 27:7 28:7 29:7 30:7 31:7 32:7 33:7 34:7 35:7 36:7 39:29 40:14 
-1.190423193438568 1.254569938920593 1.014064133799989 0.07631844819159683 1:7 2:7 3:7 4:7 5:7 6:7 7:7 8:7 9:7 10:7 11:7 12:7 13:7 14:7 15:7 16:7 17:7 18:7 19:7 20:7 21:7 22:7 23:7 24:7 25:7 26:7 27:7 28:7 29:7 30:7 31:7 32:7 33:7 34:7 35:7 36:7 39:23 40:20 
-1.158794780908402 1.240134293133332 0.9951063788055288 0.03983435979052818 1:1 2:6 3:3 4:7 5:7 6:7 7:3 8:6 9:3 10:7 11:7 12:7 13:3 14:7 15:2 16:7 17:7 18:7 19:8 20:6 21:6 22:7 23:7 24:7 25:8 26:6 27:7 28:7 29:7 30:7 31:8 32:6 33:7 34:7 35:7 36:7 39:14 40:29 
-1.158673705680828 1.240136115774213 1.014072792955205 0.04041430036182658 1:7 2:6 3:6 4:7 5:7 6:7 7:7 8:6 9:6 10:7 11:7 12:7 13:7 14:7 15:2 16:7 17:7 18:7 19:7 20:7 21:1 22:7 23:7 24:7 25:2 26:2 27:7 28:7 29:7 30:7 31:6 32:2 33:7 34:7 35:7 36:7 39:14 40:29 
-1.174490795470317 1.240268197189949 0.9978100248178565 0.04042807403808724 1:2 2:6 3:2 4:7 5:7 6:7 7:2 8:8 9:2 10:7 11:7 12:7 13:2 14:6 15:2 16:7 17:7 18:7 19:2 20:2 21:2 22:7 23:7 24:7 25:7 26:2 27:7 28:7 29:7 30:7 31:2 32:7 33:3 34:7 35:7 36:7 39:12 40:31 
-1.158700470646215 1.240625297941127 0.9950771115811939 0.04042837726700044 1:7 2:8 3:2 4:6 5:2 6:7 7:7 8:8 9:6 10:6 11:2 12:7 13:7 14:8 15:6 16:6 17:6 18:7 19:7 20:8 21:7 22:7 23:7 24:7 25:7 26:8 27:6 28:3 29:7 30:7 31:7 32:8 33:6 34:3 35:7 36:7 39:11 40:32 
-1.17436961300932 8.3721 0.9950771115847833 0.0404357326231039 1:2 2:2 3:7 4:6 5:7 6:7 7:2 8:6 9:7 10:6 11:7 12:7 13:2 14:6 15:2 16:2 17:7 18:7 19:2 20:8 21:2 22:1 23:7 24:7 25:2 26:6 27:2 28:7 29:7 30:7 31:7 32:2 33:2 34:7 35:7 36:7 39:10 40:33 
-1.158652625054189 8.3721 0.9950217373850296 0.0397628501239693 1:7 2:7 3:7 4:7 5:7 6:7 7:2 8:7 9:7 10:7 11:7 12:7 13:2 14:7 15:7 16:7 17:7 18:7 19:2 20:7 21:7 22:7 23:7 24:7 25:2 26:7 27:7 28:7 29:7 30:7 31:2 32:7 33:7 34:7 35:7 36:7 39:8 40:35 
-1.174055274489854 1.24082311227844 0.9953878029635501 0.03979381239181112 1:7 2:7 3:7 4:7 5:7 6:7 7:7 8:7 9:7 10:7 11:7 12:7 13:7 14:7 15:7 16:7 17:7 18:7 19:7 20:7 21:7 22:7 23:7 24:7 25:7 26:7 27:7 28:7 29:7 30:7 31:7 32:7 33:7 34:7 35:7 36:7 39:8 40:35 
-1.158697026628273 8.3721 1.014076282147022 0.03979381239181112 1:2 2:7 3:7 4:7 5:7 6:7 7:2 8:7 9:7 10:7 11:7 12:7 13:2 14:7 15:7 16:7 17:7 18:7 19:2 20:7 21:7 22:7 23:7 24:7 25:2 26:7 27:7 28:7 29:7 30:7 31:2 32:7 33:7 34:7 35:7 36:7 39:8 40:35 
-1.174055281160221 1.240132649523946 0.9954355065638127 0.03982768411804077 1:8 2:7 3:7 4:7 5:7 6:7 7:8 8:7 9:7 10:7 11:7 12:7 13:8 14:7 15:7 16:7 17:7 18:7 19:8 20:7 21:7 22:7 23:7 24:7 25:8 26:7 27:7 28:7 29:7 30:7 31:8 32:7 33:7 34:7 35:7 36:7 39:3 40:40 
-0.9424254714930292 -0.7596909620491046 0.7511265053460516 0.01285649002929834 1:7 2:6 3:7 4:7 5:7 6:7 7:7 8:3 9:7 10:7 11:7 12:7 13:7 14:7 15:7 16:7 17:7 18:7 19:7 20:7 21:7 22:7 23:7 24:7 25:7 26:7 27:7 28:7 29:7 30:7 31:7 32:7 33:7 34:7 35:7 36:7 39:2 40:1 
-8.3721 -8.3721 0.961021409811381 0.01257235664961374 1:7 2:7 3:7 4:7 5:7 6:7 7:7 8:7 9:7 10:7 11:7 12:7 13:7 14:7 15:7 16:7 17:7 18:7 19:7 20:7 21:7 22:7 23:7 24:7 25:7 26:7 27:7 28:7 29:7 30:7 31:7 32:7 33:7 34:7 35:7 36:7 39:2 40:1 
-0.9423574573155712 -0.759887352658923 0.751128602567555 0.01279408002680699 1:7 2:7 3:7 4:6 5:6 6:7 7:7 8:7 9:6 10:6 11:1 12:7 13:7 14:7 15:6 16:1 17:1 18:7 19:7 20:7 21:6 22:3 23:7 24:7 25:7 26:7 27:6 28:7 29:7 30:7 31:7 32:7 33:7 34:7 35:7 38:4 
-0.8302564128656672 -0.6692344318755539 0.7545193195521558 0.0115596234218875 1:7 2:7 3:7 4:6 5:7 6:7 7:7 8:7 9:7 10:7 11:7 12:7 13:7 14:7 15:7 16:7 17:7 18:7 19:7 20:7 21:7 22:7 23:7 24:7 25:7 26:7 27:7 28:7 29:7 30:7 31:7 32:7 33:7 34:7 35:7 36:7 39:4 
-0 -0.6981134085236553 8.3721 0 1:7 2:7 3:7 4:7 5:7 6:7 7:7 8:7 9:7 10:7 11:7 12:7 13:7 14:7 15:7 16:7 17:7 18:7 19:7 20:7 21:7 22:7 23:7 24:7 25:7 26:7 27:7 28:7 29:7 30:7 31:7 32:7 33:7 34:7 35:7 36:7 39:4 
-0.8498576247658518 -8.341292235506105 8.3721 0.01154826888431765 1:7 2:7 3:7 4:7 5:7 6:7 7:7 8:7 9:7 10:7 11:7 12:7 13:7 14:7 15:7 16:7 17:7 18:7 19:7 20:7 21:7 22:7 23:7 24:7 25:7 26:7 27:7 28:7 29:7 30:7 31:7 32:7 33:7 34:7 35:7 36:7 39:4 
-1.10606237603535 -0.7809398188034371 0.9371226053137958 0.01254163991551106 1:7 2:8 3:7 4:7 5:7 6:7 7:7 8:7 9:7 10:7 11:7 12:7 13:7 14:7 15:7 16:7 17:7 18:7 19:7 20:7 21:7 22:7 23:7 24:7 25:7 26:7 27:7 28:7 29:7 30:7 31:7 32:7 33:7 34:7 35:7 36:7 39:3 40:1 
-0.9426979255882858 -0.7597928956700988 0.7511306575870094 0.01279364289962232 1:7 2:3 3:7 4:6 5:7 6:7 7:7 8:6 9:1 10:6 11:7 12:7 13:3 14:6 15:1 16:5 17:7 18:7 19:6 20:6 21:6 22:7 23:7 24:7 25:6 26:6 27:7 28:7 29:7 30:7 31:1 32:6 33:7 34:7 35:7 36:7 39:3 40:1 
-0.9425777304894014 -0.7597574167218326 0.751130696145239 0.01280119635676186 1:7 2:6 3:6 4:7 5:7 6:7 7:3 8:6 9:7 10:7 11:7 12:7 13:6 14:6 15:7 16:7 17:7 18:7 19:6 20:6 21:7 22:7 23:7 24:7 25:1 26:7 27:7 28:7 29:7 30:7 31:2 32:7 33:7 34:7 35:7 36:7 39:3 40:1 
-0.9428679980848056 -0.75982174160219 0.7511312088954794 0.01281542332450775 1:3 2:6 3:7 4:7 5:7 6:7 7:6 8:6 9:7 10:7 11:7 12:7 13:6 14:7 15:7 16:7 17:7 18:7 19:1 20:7 21:7 22:7 23:7 24:7 25:2 26:7 27:7 28:7 29:7 30:7 31:6 32:7 33:7 34:7 35:7 36:7 39:2 40:2 
-0.9431744453284125 -0.7597972035169227 0.7510339913420133 0.01367681685507321 1:6 2:7 3:7 4:7 5:7 6:7 7:6 8:7 9:7 10:7 11:7 12:7 13:1 14:7 15:7 16:7 17:7 18:7 19:2 20:7 21:7 22:7 23:7 24:7 25:6 26:7 27:7 28:7 29:7 30:7 31:7 32:7 33:7 34:7 35:7 36:7 39:2 40:2 
-0.9424816088434373 -0.759965377824416 0.7511331708601416 0.01282638494788479 1:7 2:7 3:7 4:7 5:8 6:7 7:7 8:8 9:8 10:7 11:8 12:7 13:7 14:6 15:8 16:2 17:8 18:7 19:7 20:6 21:8 22:2 23:8 24:7 25:7 26:1 27:8 28:8 29:4 30:7 31:7 32:1 33:8 34:7 35:7 39:4 
-0.9424463148349413 -0.7600453882350406 0.7511331708601694 0.01282601423326835 1:7 2:7 3:6 4:8 5:7 6:7 7:7 8:7 9:1 10:8 11:7 12:7 13:7 14:7 15:1 16:7 17:7 18:7 19:7 20:7 21:6 22:7 23:7 24:7 25:7 26:7 27:7 28:7 29:7 30:7 31:7 32:7 33:7 34:7 35:7 36:7 40:4 
-0.9427815253239076 -0.7601555977995033 0.9373712963386979 0.01367983067111889 1:7 2:7 3:6 4:7 5:7 6:7 7:7 8:7 9:7 10:7 11:7 12:7 13:7 14:7 15:7 16:7 17:7 18:7 19:7 20:7 21:7 22:7 23:7 24:7 25:7 26:7 27:7 28:7 29:7 30:7 31:7 32:7 33:7 34:7 35:7 36:7 40:4 
-0.9424461871302575 -0.7601258387776797 0.7511331708618212 0.01285447466855505 1:8 2:8 3:7 4:7 5:7 6:7 7:6 8:8 9:7 10:7 11:7 12:7 13:6 14:7 15:7 16:7 17:7 18:7 19:1 20:7 21:7 22:7 23:7 24:7 25:1 26:7 27:7 28:7 29:7 30:7 31:6 32:7 33:7 34:7 35:7 36:7 40:4 
-0.9424461806094677 -0.7598030172389935 0.7510446094255547 0.0128671933823799 1:6 2:7 3:7 4:7 5:7 6:7 7:6 8:7 9:7 10:7 11:7 12:7 13:1 14:7 15:7 16:7 17:7 18:7 19:1 20:7 21:7 22:7 23:7 24:7 25:6 26:7 27:7 28:7 29:7 30:7 31:7 32:7 33:7 34:7 35:7 36:7 40:4 
-0.9427599159731818 -0.7601308762144346 0.7511331708618212 0.01284538297768256 1:6 2:7 3:7 4:7 5:7 6:7 7:1 8:7 9:7 10:7 11:7 12:7 13:1 14:7 15:7 16:7 17:7 18:7 19:6 20:7 21:7 22:7 23:7 24:7 25:7 26:7 27:7 28:7 29:7 30:7 31:7 32:7 33:7 34:7 35:7 36:7 40:4 
-0.9425614258412258 -0.7594743127698738 0.7511358626191087 0.01284478026016 1:7 2:6 3:2 4:7 5:6 6:7 7:7 8:3 9:6 10:3 11:7 12:7 13:6 14:2 15:7 16:6 17:7 18:7 19:6 20:2 21:7 22:5 23:7 24:7 25:3 26:6 27:6 28:7 29:7 30:7 31:2 32:6 33:7 34:7 35:7 36:7 39:7 40:1 
-0.9425524547258649 -0.7595205135383587 0.7511358672459062 0.01283672613522024 1:7 2:6 3:3 4:6 5:6 6:7 7:7 8:6 9:2 10:6 11:7 12:7 13:6 14:6 15:2 16:6 17:7 18:7 19:6 20:3 21:6 22:7 23:7 24:7 25:6 26:2 27:6 28:7 29:7 30:7 31:6 32:2 33:7 34:7 35:7 36:7 39:6 40:2 
-0.9425777304894014 -0.7595205135812477 0.7511358675824713 0.01285660530300931 1:7 2:6 3:2 4:7 5:7 6:7 7:7 8:6 9:7 10:7 11:7 12:7 13:7 14:3 15:7 16:7 17:7 18:7 19:7 20:2 21:7 22:7 23:7 24:7 25:7 26:3 27:7 28:7 29:7 30:7 31:7 32:7 33:7 34:7 35:7 36:7 39:5 40:3 
-0.9254534158311373 -8.3721 0.7371777535390649 0.01258663015759512 1:7 2:7 3:7 4:7 5:7 6:7 7:7 8:7 9:7 10:7 11:7 12:7 13:7 14:7 15:7 16:7 17:7 18:7 19:7 20:7 21:7 22:7 23:7 24:7 25:7 26:7 27:7 28:7 29:7 30:7 31:7 32:7 33:7 34:7 35:7 36:7 39:4 40:4 
-0.9453935419707153 -0.759471800309408 0.760728893697575 0.01257093119626182 1:7 2:7 3:7 4:7 5:7 6:7 7:7 8:7 9:7 10:7 11:7 12:7 13:7 14:7 15:7 16:7 17:7 18:7 19:7 20:7 21:7 22:7 23:7 24:7 25:7 26:7 27:7 28:7 29:7 30:7 31:7 32:7 33:7 34:7 35:7 36:7 39:3 40:5 
-0.9427052910263478 -0.7598252975232898 0.7512438154143882 0.01285442731574837 1:6 2:7 3:7 4:7 5:7 6:7 7:6 8:7 9:7 10:7 11:7 12:7 13:8 14:7 15:7 16:7 17:7 18:7 19:8 20:7 21:7 22:7 23:7 24:7 25:8 26:7 27:7 28:7 29:7 30:7 31:7 32:7 33:7 34:7 35:7 36:7 39:2 40:6 
-0.9425977726194587 -0.7597939228611671 0.7511358675824713 0.01285246982670224 1:8 2:7 3:7 4:7 5:7 6:7 7:8 8:7 9:7 10:7 11:7 12:7 13:2 14:7 15:7 16:7 17:7 18:7 19:8 20:7 21:7 22:7 23:7 24:7 25:6 26:7 27:7 28:7 29:7 30:7 31:7 32:7 33:7 34:7 35:7 36:7 40:8 
-0.9426090178250599 -0.759469506648994 0.7512406251306383 0.01285343439373954 1:8 2:7 3:7 4:7 5:7 6:7 7:2 8:7 9:7 10:7 11:7 12:7 13:8 14:7 15:7 16:7 17:7 18:7 19:6 20:7 21:7 22:7 23:7 24:7 25:7 26:7 27:7 28:7 29:7 30:7 31:7 32:7 33:7 34:7 35:7 36:7 40:8 
-0.9425419173722689 -0.7598030371207827 0.7511361635877374 0.01286719357584748 1:7 2:6 3:7 4:6 5:6 6:2 7:7 8:8 9:7 10:2 11:6 12:6 13:7 14:8 15:7 16:6 17:6 18:7 19:7 20:8 21:2 22:6 23:6 24:7 25:7 26:7 27:7 28:1 29:7 30:7 31:7 32:3 33:7 34:2 35:7 36:7 39:18 
-0.942488923642079 -0.7598043066032927 0.7511361635877374 0.01286832508346497 1:7 2:8 3:2 4:6 5:7 6:7 7:6 8:3 9:6 10:6 11:7 12:7 13:6 14:3 15:6 16:7 17:7 18:7 19:8 20:3 21:6 22:7 23:7 24:7 25:6 26:3 27:6 28:7 29:7 30:7 31:6 32:3 33:7 34:7 35:7 36:7 39:14 40:4 
-0.9426578168944051 -0.7596139577678357 0.7511376084221767 0.01287201736785182 1:6 2:3 3:6 4:7 5:7 6:7 7:6 8:3 9:6 10:7 11:7 12:7 13:8 14:3 15:7 16:7 17:7 18:7 19:6 20:3 21:7 22:7 23:7 24:7 25:6 26:3 27:7 28:7 29:7 30:7 31:2 32:6 33:7 34:7 35:7 36:7 39:13 40:5 
-0.9427562429040063 -0.7597574167218326 0.7511376596606554 0.01306195013179462 1:6 2:3 3:7 4:7 5:7 6:7 7:8 8:3 9:7 10:7 11:7 12:7 13:6 14:3 15:7 16:7 17:7 18:7 19:6 20:6 21:7 22:7 23:7 24:7 25:2 26:7 27:7 28:7 29:7 30:7 31:2 32:7 33:7 34:7 35:7 36:7 39:12 40:6 
-0.9428553760846597 -0.7597533545850474 0.7511377258443231 0.01308327088880296 1:8 2:3 3:7 4:7 5:7 6:7 7:6 8:6 9:7 10:7 11:7 12:7 13:6 14:7 15:7 16:7 17:7 18:7 19:2 20:7 21:7 22:7 23:7 24:7 25:2 26:7 27:7 28:7 29:7 30:7 31:2 32:7 33:7 34:7 35:7 36:7 39:11 40:7 
-0.9428697629391628 -0.7598204429242607 0.7511404107949085 0.01311178809006014 1:6 2:7 3:7 4:7 5:7 6:7 7:6 8:7 9:7 10:7 11:7 12:7 13:2 14:7 15:7 16:7 17:7 18:7 19:2 20:7 21:7 22:7 23:7 24:7 25:2 26:7 27:7 28:7 29:7 30:7 31:2 32:7 33:7 34:7 35:7 36:7 39:10 40:8 
-0.9426329578676531 -0.7594751157082188 0.7510177153149851 0.01312679614075157 1:6 2:6 3:2 4:7 5:7 6:7 7:8 8:2 9:6 10:7 11:7 12:7 13:8 14:6 15:7 16:7 17:7 18:7 19:6 20:6 21:7 22:7 23:7 24:7 25:6 26:6 27:7 28:7 29:7 30:7 31:2 32:6 33:7 34:7 35:7 36:7 39:8 40:10 
-0.9425614651499929 -0.759863870703897 0.7510167647191239 0.01314043884377064 1:8 2:6 3:7 4:7 5:7 6:7 7:8 8:6 9:7 10:7 11:7 12:7 13:6 14:6 15:7 16:7 17:7 18:7 19:6 20:6 21:7 22:7 23:7 24:7 25:2 26:7 27:7 28:7 29:7 30:7 31:6 32:7 33:7 34:7 35:7 36:7 39:7 40:11 
-0.9425670707442139 -0.7598204429242607 0.7511689474903996 0.01370764773309935 1:8 2:6 3:7 4:7 5:7 6:7 7:6 8:6 9:7 10:7 11:7 12:7 13:6 14:7 15:7 16:7 17:7 18:7 19:2 20:7 21:7 22:7 23:7 24:7 25:6 26:7 27:7 28:7 29:7 30:7 31:6 32:7 33:7 34:7 35:7 36:7 39:6 40:12 
-0.9425342277441766 -0.7595972315396401 0.7515514202345789 0.01370764773309929 1:6 2:7 3:7 4:7 5:7 6:7 7:6 8:7 9:7 10:7 11:7 12:7 13:2 14:7 15:7 16:7 17:7 18:7 19:6 20:7 21:7 22:7 23:7 24:7 25:6 26:7 27:7 28:7 29:7 30:7 31:1 32:7 33:7 34:7 35:7 36:7 39:5 40:13 
-0.942580187488952 -0.7595205135812475 0.7510762295188551 0.01370764773309929 1:6 2:7 3:7 4:7 5:7 6:7 7:2 8:7 9:7 10:7 11:7 12:7 13:6 14:7 15:7 16:7 17:7 18:7 19:6 20:7 21:7 22:7 23:7 24:7 25:1 26:7 27:7 28:7 29:7 30:7 31:2 32:7 33:7 34:7 35:7 36:7 39:4 40:14 
-0.9426165342286401 -0.7594233622941577 0.7511331708618212 0.01369429989790633 1:2 2:7 3:7 4:7 5:7 6:7 7:6 8:7 9:7 10:7 11:7 12:7 13:6 14:7 15:7 16:7 17:7 18:7 19:1 20:7 21:7 22:7 23:7 24:7 25:2 26:7 27:7 28:7 29:7 30:7 31:7 32:7 33:7 34:7 35:7 36:7 39:3 40:15 
-0 -1.000009216375259 8.3721 0 1:7 2:7 3:7 4:7 5:7 6:7 7:7 8:7 9:7 10:7 11:7 12:7 13:7 14:7 15:7 16:7 17:7 18:7 19:7 20:7 21:7 22:7 23:7 24:7 25:7 26:7 27:7 28:7 29:7 30:7 31:7 32:7 33:7 34:7 35:7 36:7 39:1 40:17 
-0.9474546348738896 -8.140989036384605 8.3721 0.01256595866548099 1:7 2:7 3:7 4:7 5:7 6:7 7:7 8:7 9:7 10:7 11:7 12:7 13:7 14:7 15:7 16:7 17:7 18:7 19:7 20:7 21:7 22:7 23:7 24:7 25:7 26:7 27:7 28:7 29:7 30:7 31:7 32:7 33:7 34:7 35:7 36:7 39:1 40:17 
-0.9425977726194587 -0.7595956218168843 0.7510167666214644 0.01369223959658961 1:7 2:7 3:7 4:7 5:6 6:7 7:7 8:7 9:6 10:7 11:6 12:7 13:7 14:7 15:7 16:7 17:6 18:7 19:7 20:7 21:3 22:7 23:6 24:7 25:7 26:7 27:6 28:7 29:6 30:7 31:7 32:7 33:6 34:7 35:6 38:17 
-0.9424171771577402 -0.7593872924686385 0.7510154180818781 0.01369223959658961 1:7 2:7 3:7 4:7 5:6 6:7 7:7 8:7 9:8 10:7 11:6 12:7 13:8 14:8 15:6 16:7 17:6 18:7 19:8 20:7 21:6 22:7 23:6 24:7 25:7 26:7 27:6 28:7 29:6 30:7 31:3 32:7 33:6 34:7 35:2 38:16 39:1 
-0.9622448109035251 -0.7598204429242607 0.7510492786406965 0.01369111423519859 1:7 2:8 3:7 4:6 5:7 6:5 7:7 8:8 9:7 10:6 11:7 12:7 13:7 14:7 15:7 16:6 17:7 18:6 19:7 20:3 21:7 22:6 23:7 24:7 25:7 26:6 27:7 28:6 29:6 30:6 31:7 32:6 33:7 34:6 35:7 36:7 39:16 40:1 
-0.942481415816138 -0.7597576355822925 0.7510258662899203 0.01368976250828141 1:7 2:7 3:7 4:6 5:7 6:7 7:7 8:3 9:7 10:6 11:6 12:7 13:7 14:6 15:7 16:6 17:7 18:7 19:7 20:6 21:7 22:7 23:7 24:7 25:7 26:6 27:7 28:6 29:7 30:7 31:7 32:6 33:7 34:7 35:7 36:7 39:16 40:1 
-0.9383130344490028 -0.7557458223405183 0.7475566875107346 0.01363338307373469 1:7 2:6 3:7 4:6 5:7 6:7 7:7 8:6 9:7 10:7 11:7 12:7 13:7 14:6 15:7 16:7 17:7 18:7 19:7 20:6 21:7 22:7 23:7 24:7 25:7 26:6 27:6 28:7 29:7 30:7 31:7 32:6 33:7 34:7 35:7 36:7 39:16 40:1 
-0.9239557023483392 -0.7441462116377733 0.7358732240189547 0.01255254477589651 1:7 2:6 3:7 4:7 5:7 6:7 7:7 8:6 9:6 10:7 11:7 12:7 13:7 14:6 15:7 16:7 17:7 18:7 19:7 20:6 21:7 22:7 23:7 24:7 25:7 26:6 27:7 28:7 29:7 30:7 31:7 32:6 33:7 34:7 35:7 36:7 39:16 40:1 
-0.9071172447603431 -0.7306526285014012 0.7225496725617602 0.01234696957883041 1:7 2:6 3:7 4:7 5:7 6:7 7:7 8:6 9:7 10:7 11:7 12:7 13:7 14:6 15:7 16:7 17:7 18:7 19:7 20:6 21:7 22:7 23:7 24:7 25:7 26:6 27:7 28:7 29:7 30:7 31:7 32:7 33:7 34:7 35:7 36:7 39:16 40:1 
-0.9086004909147832 -0.7329319655413482 0.7242056064754409 0.01239366358500931 1:7 2:6 3:7 4:7 5:7 6:7 7:7 8:6 9:7 10:7 11:7 12:7 13:7 14:6 15:7 16:7 17:7 18:7 19:7 20:7 21:7 22:7 23:7 24:7 25:7 26:7 27:7 28:7 29:7 30:7 31:7 32:7 33:7 34:7 35:7 36:7 39:16 40:1 
-1.08961210990659 -0.7670051393111755 0.6481086173432484 0.01136663399759841 1:7 2:6 3:7 4:7 5:7 6:7 7:7 8:7 9:7 10:7 11:7 12:7 13:7 14:7 15:7 16:7 17:7 18:7 19:7 20:7 21:7 22:7 23:7 24:7 25:7 26:7 27:7 28:7 29:7 30:7 31:7 32:7 33:7 34:7 35:7 36:7 39:16 40:1 
-8.3721 -8.3721 1.067364594527194 0 1:7 2:7 3:7 4:7 5:7 6:7 7:7 8:7 9:7 10:7 11:7 12:7 13:7 14:7 15:7 16:7 17:7 18:7 19:7 20:7 21:7 22:7 23:7 24:7 25:7 26:7 27:7 28:7 29:7 30:7 31:7 32:7 33:7 34:7 35:7 36:7 39:16 40:1 
-8.3721 -8.3721 8.138801063445307 0.01138207782521095 1:7 2:7 3:7 4:7 5:7 6:7 7:7 8:7 9:7 10:7 11:7 12:7 13:7 14:7 15:7 16:7 17:7 18:7 19:7 20:7 21:7 22:7 23:7 24:7 25:7 26:7 27:7 28:7 29:7 30:7 31:7 32:7 33:7 34:7 35:7 36:7 39:16 40:1 
-0.9413649185217714 -0.7576007888092183 0.7527808867155286 0.01364974513932684 1:8 2:7 3:7 4:7 5:7 6:7 7:8 8:7 9:7 10:7 11:7 12:7 13:8 14:7 15:7 16:7 17:7 18:7 19:8 20:7 21:7 22:7 23:7 24:7 25:7 26:7 27:7 28:7 29:7 30:7 31:6 32:7 33:7 34:7 35:7 36:7 39:16 40:1 
-0.9406859766344263 -0.7609627043946445 0.7490870473793618 0.01364729637131487 1:8 2:7 3:7 4:7 5:7 6:7 7:8 8:7 9:7 10:7 11:7 12:7 13:8 14:7 15:7 16:7 17:7 18:7 19:7 20:7 21:7 22:7 23:7 24:7 25:6 26:7 27:7 28:7 29:7 30:7 31:7 32:7 33:7 34:7 35:7 36:7 39:16 40:1 
-0.8304554339123039 -0.6690971399530025 0.6615316100471083 0.01156070691595566 1:7 2:7 3:7 4:8 5:7 6:7 7:7 8:7 9:7 10:7 11:7 12:7 13:7 14:7 15:7 16:7 17:7 18:7 19:7 20:7 21:7 22:7 23:7 24:7 25:7 26:7 27:7 28:7 29:7 30:7 31:7 32:7 33:7 34:7 35:7 36:7 39:15 40:2 
-0 -0 1.157757016565978 0 1:7 2:7 3:7 4:7 5:7 6:7 7:7 8:7 9:7 10:7 11:7 12:7 13:7 14:7 15:7 16:7 17:7 18:7 19:7 20:7 21:7 22:7 23:7 24:7 25:7 26:7 27:7 28:7 29:7 30:7 31:7 32:7 33:7 34:7 35:7 36:7 39:15 40:2 
-0 -0 8.3721 0 1:7 2:7 3:7 4:7 5:7 6:7 7:7 8:7 9:7 10:7 11:7 12:7 13:7 14:7 15:7 16:7 17:7 18:7 19:7 20:7 21:7 22:7 23:7 24:7 25:7 26:7 27:7 28:7 29:7 30:7 31:7 32:7 33:7 34:7 35:7 36:7 39:15 40:2 
-0 -0 8.3721 0 1:7 2:7 3:7 4:7 5:7 6:7 7:7 8:7 9:7 10:7 11:7 12:7 13:7 14:7 15:7 16:7 17:7 18:7 19:7 20:7 21:7 22:7 23:7 24:7 25:7 26:7 27:7 28:7 29:7 30:7 31:7 32:7 33:7 34:7 35:7 36:7 39:15 40:2 
-0.8522671305982487 -0.6699018602979796 8.07518565990156 0.01138665431547858 1:7 2:7 3:7 4:7 5:7 6:7 7:7 8:7 9:7 10:7 11:7 12:7 13:7 14:7 15:7 16:7 17:7 18:7 19:7 20:7 21:7 22:7 23:7 24:7 25:7 26:7 27:7 28:7 29:7 30:7 31:7 32:7 33:7 34:7 35:7 36:7 39:15 40:2 
-0.9424196654109203 -0.7594814706763626 0.7515377324417223 0.01285440754776437 1:5 2:7 3:7 4:7 5:7 6:7 7:7 8:7 9:7 10:7 11:7 12:7 13:8 14:7 15:7 16:7 17:7 18:7 19:7 20:7 21:7 22:7 23:7 24:7 25:8 26:7 27:7 28:7 29:7 30:7 31:7 32:7 33:7 34:7 35:7 36:7 39:15 40:2 
-0.9425616800923819 -0.7601555813590305 0.7743312462204457 0.0136901774169918 1:3 2:6 3:6 4:8 5:7 6:7 7:6 8:6 9:6 10:7 11:7 12:7 13:7 14:6 15:7 16:7 17:7 18:7 19:7 20:7 21:7 22:7 23:7 24:7 25:7 26:7 27:8 28:7 29:7 30:7 31:7 32:7 33:7 34:7 35:7 36:7 39:14 40:3 
-0.962070350664278 -0.7597948786094607 0.7510167647191239 0.013690748726715 1:6 2:6 3:7 4:7 5:7 6:7 7:7 8:7 9:8 10:7 11:7 12:7 13:7 14:7 15:7 16:7 17:7 18:7 19:7 20:7 21:7 22:7 23:7 24:7 25:7 26:7 27:7 28:7 29:7 30:7 31:7 32:2 33:7 34:7 35:7 36:7 39:14 40:3 
-0.962097421673723 -0.7596016883496411 0.7511404107949085 0.01369042245302698 1:7 2:7 3:7 4:7 5:7 6:7 7:7 8:7 9:7 10:7 11:7 12:7 13:7 14:7 15:7 16:7 17:7 18:7 19:7 20:2 21:7 22:7 23:7 24:7 25:7 26:8 27:7 28:7 29:7 30:7 31:7 32:7 33:7 34:7 35:7 36:7 39:14 40:3 
-0.9426353595009981 -0.7595940886074941 0.7510154152216588 0.01369017741699191 1:7 2:7 3:7 4:8 5:7 6:7 7:7 8:3 9:3 10:8 11:7 12:7 13:3 14:3 15:7 16:8 17:7 18:3 19:7 20:7 21:8 22:8 23:7 24:6 25:7 26:8 27:7 28:8 29:7 30:6 31:7 32:8 33:7 34:8 35:7 38:9 39:8 
-0.9425660035970108 -0.7597928956700988 0.7511265053460531 0.01368983681623365 1:7 2:7 3:7 4:8 5:6 6:7 7:7 8:7 9:6 10:7 11:6 12:7 13:8 14:7 15:6 16:6 17:2 18:7 19:8 20:7 21:6 22:2 23:1 24:8 25:8 26:7 27:6 28:6 29:6 30:7 31:8 32:7 33:6 34:6 35:6 39:17 
-0.9425419173722689 -0.759816561278001 0.7511265986017007 0.01368983681623365 1:7 2:8 3:7 4:6 5:6 6:6 7:7 8:8 9:7 10:6 11:2 12:7 13:7 14:8 15:7 16:6 17:2 18:7 19:8 20:8 21:7 22:2 23:1 24:8 25:7 26:8 27:7 28:4 29:8 30:7 31:7 32:8 33:7 34:7 35:8 36:7 40:17 
-0.9425347611812777 -0.7597574166721827 0.7511209340983709 0.01285028155190392 1:7 2:8 3:7 4:4 5:8 6:7 7:7 8:8 9:7 10:7 11:8 12:7 13:8 14:8 15:7 16:8 17:7 18:7 19:7 20:8 21:7 22:7 23:7 24:7 25:7 26:8 27:7 28:8 29:7 30:7 31:7 32:8 33:8 34:7 35:7 36:7 40:17 
-0.9426263984984523 -0.7594657443895794 0.7509923368517504 0.0136766638243506 1:7 2:8 3:7 4:8 5:7 6:7 7:8 8:8 9:7 10:7 11:7 12:7 13:7 14:8 15:8 16:7 17:7 18:7 19:7 20:8 21:7 22:7 23:7 24:7 25:7 26:8 27:8 28:7 29:7 30:7 31:7 32:8 33:7 34:7 35:7 36:7 40:17 
-0.9402297988742984 -0.7577669862566853 0.7493681080191135 0.01365226540063436 1:8 2:8 3:7 4:7 5:7 6:7 7:7 8:8 9:8 10:7 11:7 12:7 13:7 14:8 15:7 16:7 17:7 18:7 19:7 20:8 21:7 22:7 23:7 24:7 25:7 26:8 27:7 28:7 29:7 30:7 31:7 32:7 33:7 34:7 35:7 36:7 40:17 
-0.923374706744917 -0.744187223416868 0.7360474321424036 0.01254261226521999 1:7 2:8 3:7 4:7 5:7 6:7 7:7 8:8 9:7 10:7 11:7 12:7 13:7 14:8 15:7 16:7 17:7 18:7 19:7 20:7 21:7 22:7 23:7 24:7 25:7 26:8 27:7 28:7 29:7 30:7 31:7 32:7 33:7 34:7 35:7 36:7 40:17 
-0.8133394614377385 -0.6550507666147459 0.6479414482080905 0.01136869465479579 1:7 2:8 3:7 4:7 5:7 6:7 7:7 8:7 9:7 10:7 11:7 12:7 13:7 14:8 15:7 16:7 17:7 18:7 19:7 20:7 21:7 22:7 23:7 24:7 25:7 26:7 27:7 28:7 29:7 30:7 31:7 32:7 33:7 34:7 35:7 36:7 40:17 
-0.8126928810210495 -0.6783835564257651 0.6847539136142704 0.01139148689553177 1:7 2:8 3:7 4:7 5:7 6:7 7:7 8:7 9:7 10:7 11:7 12:7 13:7 14:7 15:7 16:7 17:7 18:7 19:7 20:7 21:7 22:7 23:7 24:7 25:7 26:7 27:7 28:7 29:7 30:7 31:7 32:7 33:7 34:7 35:7 36:7 40:17 
-0.9425347611812794 -0.7598638707033908 0.7510737984288147 0.01368976250828258 1:2 2:6 3:2 4:7 5:7 6:7 7:2 8:6 9:7 10:7 11:7 12:7 13:7 14:7 15:7 16:7 17:7 18:7 19:7 20:7 21:7 22:7 23:7 24:7 25:6 26:2 27:7 28:7 29:7 30:7 31:6 32:2 33:7 34:7 35:7 36:7 39:12 
-0.9425054888954933 -0.7598657064599939 0.7511447274591774 0.01368976250828258 1:7 2:2 3:7 4:7 5:7 6:7 7:7 8:7 9:7 10:7 11:7 12:7 13:2 14:7 15:7 16:7 17:7 18:7 19:6 20:2 21:7 22:7 23:7 24:7 25:2 26:2 27:7 28:7 29:7 30:7 31:5 32:2 33:7 34:7 35:7 36:7 39:11 40:1 
-0.9430552870038595 -0.7598657068666678 0.7509188432606568 0.01368460536509453 1:7 2:7 3:7 4:7 5:7 6:7 7:2 8:2 9:7 10:7 11:7 12:7 13:6 14:2 15:7 16:7 17:7 18:7 19:2 20:2 21:7 22:7 23:7 24:7 25:5 26:7 27:7 28:7 29:7 30:7 31:2 32:7 33:7 34:7 35:7 36:7 39:10 40:2 
-0.9424814158162491 -0.7594751157082188 0.7507823719575475 0.01368414122103101 1:2 2:2 3:7 4:7 5:7 6:7 7:6 8:2 9:7 10:7 11:7 12:7 13:2 14:7 15:7 16:7 17:7 18:7 19:5 20:7 21:7 22:7 23:7 24:7 25:2 26:7 27:7 28:7 29:7 30:7 31:6 32:7 33:7 34:7 35:7 36:7 39:9 40:3 
-0 -0.7467922437519308 0 0 1:7 2:7 3:7 4:7 5:7 6:7 7:7 8:7 9:7 10:7 11:7 12:7 13:7 14:7 15:7 16:7 17:7 18:7 19:7 20:7 21:7 22:7 23:7 24:7 25:7 26:7 27:7 28:7 29:7 30:7 31:7 32:7 33:7 34:7 35:7 36:7 39:8 40:4 
-0.925109653381148 -8.371063043563602 0.7373152928144741 0.01257954252496059 1:7 2:7 3:7 4:7 5:7 6:7 7:7 8:7 9:7 10:7 11:7 12:7 13:7 14:7 15:7 16:7 17:7 18:7 19:7 20:7 21:7 22:7 23:7 24:7 25:7 26:7 27:7 28:7 29:7 30:7 31:7 32:7 33:7 34:7 35:7 36:7 39:8 40:4 
-0.94492767905556 -0.7464412809447025 0.7375200433025771 0.01257954249853364 1:7 2:7 3:7 4:7 5:7 6:7 7:7 8:7 9:7 10:7 11:7 12:7 13:7 14:7 15:7 16:7 17:7 18:7 19:7 20:7 21:7 22:7 23:7 24:7 25:7 26:7 27:7 28:7 29:7 30:7 31:7 32:7 33:7 34:7 35:7 36:7 39:7 40:5 
-0.9447347430764174 -0.7457644149745276 0.7375475383929576 0.01257954251778566 1:7 2:7 3:7 4:7 5:7 6:7 7:7 8:7 9:7 10:7 11:7 12:7 13:7 14:7 15:7 16:7 17:7 18:7 19:7 20:7 21:7 22:7 23:7 24:7 25:7 26:7 27:7 28:7 29:7 30:7 31:7 32:7 33:7 34:7 35:7 36:7 39:1 40:11 
-0 -0 0.7417731454023568 0 1:7 2:7 3:7 4:7 5:7 6:7 7:7 8:7 9:7 10:7 11:7 12:7 13:7 14:7 15:7 16:7 17:7 18:7 19:7 20:7 21:7 22:7 23:7 24:7 25:7 26:7 27:7 28:7 29:7 30:7 31:7 32:7 33:7 34:7 35:7 36:7 40:12 
-0.9252602694847207 -0.7464093305411823 8.367828126367693 0.01257954251778575 1:7 2:7 3:7 4:7 5:7 6:7 7:7 8:7 9:7 10:7 11:7 12:7 13:7 14:7 15:7 16:7 17:7 18:7 19:7 20:7 21:7 22:7 23:7 24:7 25:7 26:7 27:7 28:7 29:7 30:7 31:7 32:7 33:7 34:7 35:7 36:7 40:12 
-8.3721 -0.75982174160219 8.3721 0.01368163317239718 1:7 2:7 3:7 4:7 5:7 6:7 7:7 8:7 9:7 10:7 11:7 12:7 13:7 14:7 15:7 16:7 17:7 18:7 19:7 20:7 21:7 22:7 23:7 24:7 25:7 26:7 27:7 28:7 29:7 30:7 31:7 32:7 33:7 34:7 35:7 36:7 39:28 
-8.3721 -8.3721 0.7511635893570274 0.01368159045392969 1:7 2:7 3:2 4:7 5:7 6:7 7:7 8:7 9:7 10:7 11:7 12:7 13:7 14:7 15:7 16:7 17:7 18:7 19:7 20:7 21:7 22:7 23:7 24:7 25:7 26:7 27:7 28:7 29:7 30:7 31:7 32:7 33:7 34:7 35:7 36:7 39:28 
-0.9424706265171957 -0.7597309407571478 0.7511589739325887 0.01368051541420501 1:7 2:7 3:8 4:7 5:6 6:6 7:7 8:7 9:8 10:8 11:6 12:6 13:7 14:7 15:8 16:7 17:6 18:6 19:7 20:7 21:8 22:7 23:1 24:6 25:7 26:7 27:8 28:7 29:1 30:6 31:7 32:7 33:8 34:7 35:1 36:7 39:27 40:1 
-0.9424364594271206 -0.7594861330730839 0.7511716723630816 0.01367983067438389 1:7 2:7 3:8 4:7 5:1 6:2 7:7 8:7 9:8 10:7 11:6 12:7 13:7 14:7 15:8 16:6 17:6 18:7 19:7 20:7 21:6 22:6 23:7 24:7 25:7 26:7 27:3 28:6 29:2 30:7 31:7 32:5 33:3 34:6 35:7 36:7 39:26 40:2 
-0.9424247498540068 -0.7593747020588736 0.7510653402494594 0.01367978778551132 1:7 2:7 3:6 4:6 5:7 6:7 7:7 8:7 9:3 10:6 11:7 12:7 13:7 14:7 15:3 16:6 17:7 18:7 19:7 20:5 21:3 22:7 23:7 24:7 25:7 26:7 27:2 28:2 29:7 30:7 31:7 32:7 33:2 34:7 35:7 36:7 39:25 40:3 
-0.9424181506459219 -0.7593872854309918 0.751083543845388 0.01368983681623365 1:7 2:7 3:3 4:2 5:7 6:7 7:7 8:5 9:2 10:7 11:7 12:7 13:7 14:7 15:2 16:7 17:7 18:7 19:7 20:7 21:2 22:7 23:7 24:7 25:7 26:7 27:6 28:7 29:7 30:7 31:7 32:7 33:7 34:7 35:7 36:7 39:24 40:4 
-0.9423489263549414 -0.7594751157082188 0.7511291414875514 0.01369223959658961 1:7 2:7 3:2 4:7 5:7 6:7 7:7 8:7 9:6 10:7 11:7 12:7 13:7 14:7 15:7 16:7 17:7 18:7 19:7 20:7 21:2 22:7 23:7 24:7 25:7 26:7 27:7 28:7 29:7 30:7 31:7 32:7 33:7 34:7 35:7 36:7 39:23 40:5 
-0.9428701911367137 -0.7598204429242607 0.7511304548027631 0.01368976250828269 1:7 2:3 3:2 4:7 5:7 6:7 7:7 8:3 9:7 10:7 11:7 12:7 13:7 14:3 15:7 16:7 17:7 18:7 19:7 20:2 21:7 22:7 23:7 24:7 25:7 26:2 27:7 28:7 29:7 30:7 31:5 32:2 33:7 34:7 35:7 36:7 39:23 40:5 
-0.9425559940971896 -0.7594193418809506 0.7511203482122383 0.01285649002929828 1:7 2:3 3:7 4:7 5:7 6:7 7:7 8:2 9:7 10:7 11:7 12:7 13:7 14:2 15:7 16:7 17:7 18:7 19:7 20:2 21:7 22:7 23:7 24:7 25:5 26:6 27:7 28:7 29:7 30:7 31:7 32:7 33:7 34:7 35:7 36:7 39:23 40:5 
-0.9424277942011654 -0.7594743127698738 0.751032970295999 0.013672530230184 1:7 2:2 3:7 4:7 5:7 6:7 7:7 8:2 9:7 10:7 11:7 12:7 13:7 14:6 15:7 16:7 17:7 18:7 19:5 20:7 21:7 22:7 23:7 24:7 25:7 26:2 27:7 28:7 29:7 30:7 31:7 32:7 33:7 34:7 35:7 36:7 39:23 40:5 
-0.9425660035970107 -0.7602610464548549 0.7511265986017005 0.01286704711268299 1:7 2:6 3:7 4:7 5:7 6:7 7:7 8:7 9:7 10:7 11:7 12:7 13:5 14:2 15:7 16:7 17:7 18:7 19:7 20:7 21:7 22:7 23:7 24:7 25:7 26:7 27:7 28:7 29:7 30:7 31:7 32:7 33:7 34:7 35:7 36:7 39:23 40:5 
-0.9432942069169079 -0.7594726099728542 0.7511285767438829 0.01367672383380347 1:7 2:2 3:7 4:7 5:7 6:7 7:5 8:7 9:7 10:7 11:7 12:7 13:7 14:7 15:7 16:7 17:7 18:7 19:7 20:7 21:7 22:7 23:7 24:7 25:7 26:7 27:7 28:7 29:7 30:7 31:7 32:7 33:7 34:7 35:7 36:7 39:23 40:5 
-0.942944980872681 -0.7598893340242625 0.7510099264844032 0.01366892693978466 1:5 2:7 3:7 4:7 5:7 6:7 7:7 8:7 9:7 10:7 11:7 12:7 13:7 14:7 15:7 16:7 17:7 18:7 19:7 20:7 21:7 22:7 23:7 24:7 25:7 26:7 27:7 28:7 29:7 30:7 31:7 32:7 33:7 34:7 35:7 36:7 39:23 40:5 
-0.9427797229420127 -0.7598657068661454 0.7510762294487048 0.01367680072950785 1:8 2:7 3:7 4:7 5:7 6:7 7:6 8:7 9:7 10:7 11:7 12:7 13:3 14:7 15:7 16:7 17:7 18:7 19:3 20:7 21:7 22:7 23:7 24:7 25:3 26:7 27:7 28:7 29:7 30:7 31:2 32:7 33:7 34:7 35:7 36:7 39:23 40:5 
-0.9424633515253473 -0.7595832904230443 0.7510737968802168 0.0136797861506757 1:6 2:7 3:7 4:7 5:7 6:7 7:3 8:7 9:7 10:7 11:7 12:7 13:3 14:7 15:7 16:7 17:7 18:7 19:3 20:7 21:7 22:7 23:7 24:7 25:2 26:7 27:7 28:7 29:7 30:7 31:2 32:7 33:7 34:7 35:7 36:7 39:23 40:5 
-0.9427181280388629 -0.759852457724679 0.7510738407302144 0.01367285767464527 1:3 2:7 3:7 4:7 5:7 6:7 7:3 8:7 9:7 10:7 11:7 12:7 13:3 14:7 15:7 16:7 17:7 18:7 19:2 20:7 21:7 22:7 23:7 24:7 25:2 26:7 27:7 28:7 29:7 30:7 31:2 32:7 33:7 34:7 35:7 36:7 39:23 40:5 
-0.9424180755077485 -0.7597243736657164 0.7510762228784863 0.01368159045392975 1:3 2:7 3:7 4:7 5:7 6:7 7:3 8:7 9:7 10:7 11:7 12:7 13:2 14:7 15:7 16:7 17:7 18:7 19:2 20:7 21:7 22:7 23:7 24:7 25:2 26:7 27:7 28:7 29:7 30:7 31:6 32:7 33:7 34:7 35:7 36:7 39:23 40:5 
-8.3721 -8.3721 8.3721 0.01366892712225753 1:7 2:7 3:7 4:7 5:7 6:7 7:7 8:7 9:7 10:7 11:7 12:7 13:7 14:7 15:7 16:7 17:7 18:7 19:7 20:7 21:7 22:7 23:7 24:7 25:7 26:7 27:7 28:7 29:7 30:7 31:7 32:7 33:7 34:7 35:7 36:7 39:23 40:5 
-8.3721 -0 0.7491522523255346 0 1:7 2:7 3:7 4:7 5:7 6:7 7:7 8:7 9:7 10:7 11:7 12:7 13:7 14:7 15:7 16:7 17:7 18:7 19:7 20:7 21:7 22:7 23:7 24:7 25:7 26:7 27:7 28:7 29:7 30:7 31:7 32:7 33:7 34:7 35:7 36:7 39:20 40:8 
-0.9424207845190827 -0.7598030371207827 0.7510167666214644 0.013679786178867 1:7 2:1 3:7 4:7 5:7 6:7 7:7 8:1 9:7 10:7 11:7 12:7 13:7 14:6 15:7 16:7 17:7 18:7 19:5 20:7 21:7 22:7 23:7 24:7 25:7 26:2 27:7 28:7 29:7 30:7 31:7 32:7 33:7 34:7 35:7 36:7 39:20 40:8 
-0.9425524547258647 -0.759867350476054 0.7511265053460529 0.01286832508346497 1:7 2:6 3:7 4:7 5:7 6:7 7:7 8:7 9:7 10:7 11:7 12:7 13:5 14:2 15:7 16:7 17:7 18:7 19:7 20:7 21:7 22:7 23:7 24:7 25:7 26:7 27:7 28:7 29:7 30:7 31:7 32:7 33:7 34:7 35:7 36:7 39:20 40:8 
-0.9430152004011338 -0.7594848295420064 0.7511265053460529 0.01367672383380353 1:7 2:2 3:7 4:7 5:7 6:7 7:5 8:7 9:7 10:7 11:7 12:7 13:7 14:7 15:7 16:7 17:7 18:7 19:7 20:7 21:7 22:7 23:7 24:7 25:7 26:7 27:7 28:7 29:7 30:7 31:7 32:7 33:7 34:7 35:7 36:7 39:20 40:8 
-0.9433282684973978 -0.759359227973509 0.7508227284603224 0.01368615937559137 1:5 2:7 3:7 4:7 5:7 6:7 7:7 8:7 9:7 10:7 11:7 12:7 13:7 14:7 15:7 16:7 17:7 18:7 19:7 20:7 21:7 22:7 23:7 24:7 25:7 26:7 27:7 28:7 29:7 30:7 31:7 32:7 33:7 34:7 35:7 36:7 39:20 40:8 
-8.3721 -0 8.3721 0 1:7 2:7 3:7 4:7 5:7 6:7 7:7 8:7 9:7 10:7 11:7 12:7 13:7 14:7 15:7 16:7 17:7 18:7 19:7 20:7 21:7 22:7 23:7 24:7 25:7 26:7 27:7 28:7 29:7 30:7 31:7 32:7 33:7 34:7 35:7 36:7 39:20 40:8 
-8.3721 -0.7574606490157507 8.3721 0.01364682618495824 1:7 2:7 3:7 4:7 5:7 6:7 7:7 8:7 9:7 10:7 11:7 12:7 13:7 14:7 15:7 16:7 17:7 18:7 19:7 20:7 21:7 22:7 23:7 24:7 25:7 26:7 27:7 28:7 29:7 30:7 31:7 32:7 33:7 34:7 35:7 36:7 39:20 40:8 
-0.9449582986747916 -0.7577095734528422 0.7500962059680042 0.01365076066950541 1:7 2:7 3:7 4:7 5:7 6:7 7:7 8:7 9:7 10:7 11:7 12:7 13:7 14:7 15:7 16:7 17:7 18:7 19:8 20:7 21:7 22:7 23:7 24:7 25:7 26:7 27:7 28:7 29:7 30:7 31:7 32:7 33:7 34:7 35:7 36:7 39:19 40:9 
-0.9423546909653637 -0.7598043066032927 0.7510167647191239 0.01367681703819862 1:7 2:7 3:7 4:7 5:7 6:7 7:2 8:7 9:8 10:7 11:7 12:7 13:2 14:7 15:8 16:7 17:7 18:7 19:7 20:6 21:8 22:7 23:7 24:7 25:6 26:7 27:8 28:7 29:7 30:2 31:7 32:6 33:8 34:7 35:7 38:8 39:20 
-0.9622468824743248 -0.7595972315396401 0.75100255284349 0.01367680072951599 1:7 2:2 3:6 4:8 5:7 6:7 7:7 8:7 9:7 10:8 11:7 12:7 13:7 14:6 15:6 16:6 17:7 18:7 19:7 20:7 21:8 22:6 23:7 24:7 25:2 26:6 27:6 28:6 29:7 30:7 31:7 32:8 33:6 34:6 35:7 36:7 39:8 40:20 
-0.9424552727155904 -0.7597939228611671 0.7510041555715309 0.01367674632787208 1:7 2:7 3:6 4:6 5:7 6:6 7:7 8:7 9:7 10:2 11:7 12:8 13:3 14:6 15:6 16:2 17:6 18:8 19:3 20:7 21:6 22:2 23:2 24:8 25:6 26:6 27:6 28:2 29:7 30:8 31:7 32:6 33:6 34:2 35:7 36:8 39:4 40:24 
-0.9432632188683294 -0.7597179652570818 0.7510154180818781 0.01367673294721927 1:7 2:7 3:7 4:6 5:2 6:7 7:7 8:8 9:8 10:8 11:7 12:7 13:8 14:8 15:8 16:7 17:6 18:7 19:7 20:8 21:7 22:6 23:6 24:7 25:6 26:7 27:6 28:6 29:6 30:6 31:7 32:6 33:7 34:6 35:6 38:2 39:26 
-0.9424633534690862 -0.7594724300844383 0.7510154152216588 0.01367351253635879 1:7 2:8 3:8 4:6 5:6 6:6 7:7 8:7 9:7 10:7 11:6 12:8 13:7 14:6 15:6 16:7 17:6 18:2 19:7 20:7 21:2 22:7 23:8 24:2 25:6 26:6 27:2 28:6 29:8 30:7 31:7 32:6 33:2 34:2 35:8 36:7 39:2 40:26 
-0.9425195127770664 -0.7596438712026069 0.7510186419871331 0.01367285770284149 1:7 2:7 3:7 4:7 5:7 6:7 7:7 8:7 9:8 10:8 11:7 12:7 13:6 14:7 15:8 16:7 17:6 18:6 19:6 20:7 21:7 22:6 23:6 24:6 25:6 26:7 27:6 28:6 29:6 30:6 31:6 32:7 33:6 34:6 35:6 39:28 
-0.962551181584586 -0.7598657064599939 0.7510244458101213 0.01367285769883209 1:7 2:6 3:7 4:6 5:6 6:6 7:7 8:6 9:7 10:6 11:6 12:2 13:6 14:6 15:7 16:6 17:6 18:6 19:6 20:6 21:7 22:6 23:2 24:6 25:6 26:6 27:7 28:6 29:6 30:6 31:6 32:6 33:6 34:2 35:6 36:6 40:28 
-0.9427064021872886 -0.7602563511697638 0.7510258662900089 0.01367253023018394 1:7 2:8 3:8 4:6 5:7 6:7 7:7 8:7 9:6 10:6 11:7 12:7 13:7 14:6 15:6 16:6 17:2 18:7 19:8 20:8 21:6 22:6 23:2 24:7 25:7 26:6 27:2 28:7 29:2 30:7 31:6 32:6 33:6 34:2 35:2 36:7 40:28 
-0.942718129980206 -0.7594582630663352 0.7510258644860941 0.01314043884377064 1:7 2:6 3:6 4:7 5:2 6:7 7:7 8:8 9:2 10:2 11:2 12:7 13:8 14:6 15:6 16:2 17:2 18:7 19:7 20:6 21:6 22:2 23:2 24:7 25:6 26:6 27:7 28:2 29:2 30:7 31:8 32:2 33:2 34:2 35:7 36:7 40:28 
-0.9428905352857448 -0.759520513581226 0.7510444821689455 0.01313876144225362 1:7 2:6 3:6 4:2 5:7 6:7 7:8 8:6 9:7 10:2 11:7 12:7 13:7 14:6 15:2 16:2 17:7 18:7 19:6 20:2 21:2 22:2 23:7 24:7 25:8 26:6 27:2 28:2 29:7 30:7 31:8 32:6 33:2 34:7 35:7 36:7 40:28 
-0.942893831126516 -0.7596446407060558 0.7510483623545763 0.01311746541350461 1:8 2:6 3:2 4:2 5:7 6:7 7:7 8:2 9:2 10:7 11:7 12:7 13:6 14:6 15:2 16:7 17:7 18:7 19:8 20:6 21:2 22:7 23:7 24:7 25:8 26:7 27:2 28:7 29:7 30:7 31:8 32:2 33:2 34:7 35:7 36:7 40:28 
-0.9431104488726761 -0.7598524592921732 0.7510505026810332 0.01308327088880284 1:7 2:6 3:2 4:7 5:7 6:7 7:6 8:6 9:2 10:7 11:7 12:7 13:8 14:7 15:2 16:7 17:7 18:7 19:8 20:2 21:2 22:7 23:7 24:7 25:8 26:2 27:7 28:7 29:7 30:7 31:8 32:2 33:7 34:7 35:7 36:7 40:28 
-0.9431744596818481 -0.7598638842257868 0.7510544400281024 0.01288586927394414 1:6 2:7 3:2 4:7 5:7 6:7 7:8 8:2 9:7 10:7 11:7 12:7 13:8 14:2 15:7 16:7 17:7 18:7 19:8 20:2 21:7 22:7 23:7 24:7 25:8 26:2 27:7 28:7 29:7 30:7 31:8 32:2 33:7 34:7 35:7 36:7 40:28 
-0.9431926053248481 -0.7597646701710563 0.7510737984277077 0.01287201736785182 1:8 2:2 3:7 4:7 5:7 6:7 7:8 8:2 9:7 10:7 11:7 12:7 13:8 14:2 15:7 16:7 17:7 18:7 19:8 20:2 21:7 22:7 23:7 24:7 25:8 26:2 27:7 28:7 29:7 30:7 31:6 32:2 33:7 34:7 35:7 36:7 40:28 
-0.9427113861319186 -0.7598673504760542 0.7510740998438761 0.01286719357584748 1:7 2:7 3:7 4:1 5:7 6:7 7:7 8:8 9:3 10:3 11:7 12:7 13:7 14:8 15:1 16:2 17:7 18:7 19:7 20:6 21:1 22:2 23:7 24:7 25:7 26:6 27:3 28:1 29:7 30:7 31:7 32:6 33:1 34:1 35:7 38:42 39:1 
-0.94269423849768 -0.7595510627897137 0.7510762229754913 0.01285245487841141 1:7 2:8 3:1 4:2 5:7 6:6 7:7 8:8 9:1 10:1 11:7 12:6 13:7 14:6 15:3 16:1 17:2 18:6 19:7 20:6 21:1 22:7 23:2 24:6 25:7 26:6 27:1 28:2 29:3 30:6 31:7 32:6 33:1 34:2 35:3 36:6 39:40 40:3 
-0.9623152775877865 -0.7596372827560394 0.7511041779147665 0.01285246982670218 1:7 2:6 3:1 4:2 5:3 6:6 7:7 8:6 9:1 10:2 11:3 12:7 13:7 14:6 15:1 16:2 17:3 18:2 19:7 20:6 21:2 22:2 23:1 24:2 25:7 26:6 27:6 28:2 29:7 30:2 31:7 32:6 33:6 34:1 35:7 36:2 39:39 40:4 
-0.9622419800478743 -0.7594854258757509 0.7511045040924073 0.01285660530300925 1:7 2:6 3:2 4:2 5:7 6:2 7:7 8:6 9:6 10:1 11:7 12:2 13:7 14:6 15:6 16:6 17:7 18:2 19:7 20:6 21:6 22:6 23:7 24:2 25:7 26:2 27:6 28:1 29:7 30:2 31:7 32:2 33:6 34:3 35:7 36:7 39:39 40:4 
-0.9426841535722174 -0.7594820444857009 0.7511117641294512 0.0128544746685551 1:7 2:7 3:7 4:6 5:1 6:2 7:7 8:7 9:7 10:6 11:1 12:2 13:7 14:7 15:7 16:6 17:2 18:2 19:7 20:7 21:7 22:6 23:6 24:2 25:7 26:7 27:7 28:2 29:6 30:2 31:7 32:7 33:7 34:2 35:6 36:1 39:38 40:5 
-0.9426353595009981 -0.7601873315395588 0.7511209340983723 0.01284538297768262 1:7 2:7 3:7 4:2 5:6 6:6 7:7 8:7 9:7 10:2 11:6 12:6 13:7 14:7 15:7 16:2 17:6 18:1 19:7 20:7 21:7 22:2 23:1 24:3 25:7 26:7 27:7 28:2 29:1 30:2 31:7 32:7 33:7 34:6 35:6 36:3 39:38 40:5 
-0.9423344331226148 -0.7594732371636217 0.7511265290972841 0.01282815319730241 1:7 2:7 3:7 4:2 5:6 6:3 7:7 8:7 9:7 10:6 11:7 12:3 13:7 14:7 15:7 16:3 17:2 18:3 19:7 20:7 21:7 22:3 23:3 24:3 25:7 26:7 27:7 28:6 29:3 30:7 31:7 32:7 33:7 34:6 35:7 36:7 39:38 40:5 
-0.9428402208711354 -0.7593872854315959 0.7511265351553411 0.01282798149905101 1:7 2:7 3:7 4:6 5:7 6:7 7:7 8:7 9:7 10:6 11:7 12:7 13:7 14:7 15:7 16:2 17:3 18:7 19:7 20:7 21:7 22:3 23:7 24:7 25:7 26:7 27:7 28:3 29:7 30:7 31:7 32:7 33:7 34:3 35:7 36:7 39:38 40:5 
-0.9424357056180033 -0.7594193418809507 0.7511265986017006 0.01281542332450775 1:7 2:7 3:7 4:3 5:7 6:7 7:7 8:7 9:7 10:3 11:7 12:7 13:7 14:7 15:7 16:3 17:7 18:7 19:7 20:7 21:7 22:3 23:7 24:7 25:7 26:7 27:7 28:7 29:7 30:7 31:7 32:7 33:7 34:7 35:7 36:7 39:38 40:5 
-0.926106816774294 -0.7461817573449463 0.7378556121769511 0.01258333165358938 1:7 2:7 3:7 4:7 5:7 6:7 7:7 8:7 9:7 10:7 11:7 12:7 13:7 14:7 15:7 16:7 17:7 18:7 19:7 20:7 21:7 22:7 23:7 24:7 25:7 26:7 27:7 28:7 29:7 30:7 31:7 32:7 33:7 34:7 35:7 36:7 39:38 40:5 
-0.9092227962463066 -0.7326988831730182 0.7243748850828577 0.0123948804689949 1:7 2:7 3:7 4:7 5:7 6:7 7:7 8:7 9:7 10:7 11:7 12:7 13:7 14:7 15:7 16:7 17:7 18:7 19:7 20:7 21:7 22:7 23:7 24:7 25:7 26:7 27:7 28:7 29:7 30:7 31:7 32:7 33:7 34:7 35:7 36:7 39:37 40:6 
-0 -0 0.7363035491815552 0 1:7 2:7 3:7 4:7 5:7 6:7 7:7 8:7 9:7 10:7 11:7 12:7 13:7 14:7 15:7 16:7 17:7 18:7 19:7 20:7 21:7 22:7 23:7 24:7 25:7 26:7 27:7 28:7 29:7 30:7 31:7 32:7 33:7 34:7 35:7 36:7 39:36 40:7 
-0.9816842491485629 -0 8.3721 0 1:7 2:7 3:7 4:7 5:7 6:7 7:7 8:7 9:7 10:7 11:7 12:7 13:7 14:7 15:7 16:7 17:7 18:7 19:7 20:7 21:7 22:7 23:7 24:7 25:7 26:7 27:7 28:7 29:7 30:7 31:7 32:7 33:7 34:7 35:7 36:7 39:36 40:7 
-8.300148338413134 -0.7331988952548711 8.360432667832514 0.01239923218127104 1:7 2:7 3:7 4:7 5:7 6:7 7:7 8:7 9:7 10:7 11:7 12:7 13:7 14:7 15:7 16:7 17:7 18:7 19:7 20:7 21:7 22:7 23:7 24:7 25:7 26:7 27:7 28:7 29:7 30:7 31:7 32:7 33:7 34:7 35:7 36:7 39:36 40:7 
-0.9095501421688066 -0.7332468387929894 0.7245219671340752 0.0124035712081066 1:7 2:7 3:7 4:7 5:7 6:7 7:7 8:7 9:7 10:7 11:7 12:7 13:7 14:7 15:7 16:7 17:7 18:7 19:7 20:7 21:7 22:7 23:7 24:7 25:7 26:7 27:7 28:7 29:7 30:7 31:7 32:7 33:7 34:7 35:7 36:7 39:35 40:8 
-0.909456978216442 -0.7329485094264792 0.7245739117873982 0.01240008555481041 1:7 2:7 3:7 4:7 5:7 6:7 7:7 8:7 9:7 10:7 11:7 12:7 13:7 14:7 15:7 16:7 17:7 18:7 19:7 20:7 21:7 22:7 23:7 24:7 25:7 26:7 27:7 28:7 29:7 30:7 31:7 32:7 33:7 34:7 35:7 36:7 39:34 40:9 
-0.9090223224002846 -0.7333422478794207 0.7245806992253732 0.01240306623195747 1:7 2:7 3:7 4:7 5:7 6:7 7:7 8:7 9:7 10:7 11:7 12:7 13:7 14:7 15:7 16:7 17:7 18:7 19:7 20:7 21:7 22:7 23:7 24:7 25:7 26:7 27:7 28:7 29:7 30:7 31:7 32:7 33:7 34:7 35:7 36:7 39:33 40:10 
-0.9093737589497729 -0.7325221476659589 0.7242287203183654 0.01238716884497378 1:7 2:7 3:7 4:7 5:7 6:7 7:7 8:7 9:7 10:7 11:7 12:7 13:7 14:7 15:7 16:7 17:7 18:7 19:7 20:7 21:7 22:7 23:7 24:7 25:7 26:7 27:7 28:7 29:7 30:7 31:7 32:7 33:7 34:7 35:7 36:7 39:32 40:11 
-0.9260555220345293 -0.768948245984989 0.7378656612159733 0.0125815989166299 1:7 2:7 3:7 4:7 5:7 6:7 7:7 8:7 9:7 10:7 11:7 12:7 13:7 14:7 15:7 16:7 17:7 18:7 19:7 20:7 21:7 22:7 23:7 24:7 25:7 26:7 27:7 28:7 29:7 30:7 31:7 32:7 33:7 34:7 35:7 36:7 39:31 40:12 
-8.3721 -0.7826431182771452 8.3721 8.3721 1:7 2:7 3:7 4:7 5:7 6:7 7:7 8:7 9:7 10:7 11:7 12:7 13:7 14:7 15:7 16:7 17:7 18:7 19:7 20:7 21:7 22:7 23:7 24:7 25:7 26:7 27:7 28:7 29:7 30:7 31:7 32:7 33:7 34:7 35:7 36:7 39:22 40:21 
-0.9428938327951084 -0.7594751157082187 0.7511404107949085 0.01279364289962226 1:2 2:8 3:7 4:7 5:7 6:7 7:2 8:8 9:7 10:7 11:7 12:7 13:6 14:8 15:7 16:7 17:7 18:7 19:6 20:8 21:7 22:7 23:7 24:7 25:6 26:8 27:7 28:7 29:7 30:7 31:6 32:8 33:7 34:7 35:7 36:7 39:18 40:25 
-0.9425220251698029 -0.759594088607494 8.3721 0.0127829808867494 1:2 2:8 3:7 4:7 5:7 6:7 7:6 8:8 9:7 10:7 11:7 12:7 13:6 14:8 15:7 16:7 17:7 18:7 19:6 20:8 21:7 22:7 23:7 24:7 25:6 26:7 27:7 28:7 29:7 30:7 31:6 32:7 33:7 34:7 35:7 36:7 39:18 40:25 
-0.9423931489363357 -0.7598524592902982 0.7510164342877659 0.01367673162035921 1:2 2:2 3:7 4:6 5:7 6:7 7:2 8:6 9:7 10:6 11:7 12:7 13:2 14:6 15:2 16:2 17:7 18:7 19:2 20:8 21:2 22:1 23:7 24:7 25:2 26:6 27:2 28:7 29:7 30:7 31:7 32:2 33:2 34:7 35:7 36:7 39:12 40:31 
-0.9423348104970355 -0.759520513581226 0.7511447204257289 0.01278298088674934 1:2 2:2 3:7 4:7 5:7 6:7 7:2 8:8 9:7 10:7 11:7 12:7 13:2 14:2 15:7 16:7 17:7 18:7 19:2 20:2 21:7 22:7 23:7 24:7 25:7 26:2 27:7 28:7 29:7 30:7 31:7 32:7 33:7 34:7 35:7 36:7 39:11 40:32 
-0.9620436582404902 -0.7598657068666719 0.7511447204257289 0.01280147477919424 1:2 2:7 3:8 4:6 5:3 6:7 7:2 8:7 9:6 10:6 11:2 12:7 13:2 14:2 15:6 16:6 17:6 18:7 19:2 20:6 21:7 22:6 23:7 24:7 25:2 26:6 27:7 28:6 29:7 30:7 31:2 32:8 33:2 34:6 35:7 36:7 39:10 40:33 
-0.9621431674687742 -8.3721 0.7510074997753096 0.0128858677348308 1:2 2:2 3:7 4:6 5:7 6:7 7:2 8:6 9:7 10:6 11:7 12:7 13:2 14:6 15:2 16:2 17:7 18:7 19:2 20:8 21:2 22:1 23:7 24:7 25:2 26:6 27:2 28:7 29:7 30:7 31:7 32:2 33:2 34:7 35:7 36:7 39:10 40:33 
-0.942393257651355 -0.7597620540444101 0.751144727459175 0.01282526083322605 1:2 2:7 3:8 4:6 5:6 6:6 7:2 8:7 9:8 10:6 11:6 12:6 13:2 14:7 15:8 16:2 17:6 18:6 19:2 20:7 21:8 22:2 23:7 24:6 25:2 26:7 27:8 28:6 29:6 30:6 31:2 32:7 33:8 34:6 35:6 36:1 39:8 40:35 
-0.9428938327951086 -0.7598887975592091 0.7511447274591766 0.01282815319730246 1:1 2:8 3:6 4:6 5:7 6:2 7:1 8:8 9:6 10:6 11:7 12:2 13:1 14:8 15:6 16:6 17:7 18:2 19:1 20:8 21:6 22:6 23:7 24:2 25:1 26:6 27:6 28:6 29:7 30:2 31:8 32:6 33:6 34:6 35:7 36:7 39:8 40:35 
-0.9432873434039508 -0.7597928956700988 0.7511447274591774 0.01282798149905096 1:1 2:8 3:6 4:6 5:7 6:7 7:1 8:8 9:6 10:6 11:7 12:7 13:1 14:6 15:6 16:6 17:7 18:7 19:1 20:6 21:7 22:1 23:7 24:7 25:8 26:2 27:6 28:2 29:7 30:7 31:8 32:2 33:6 34:2 35:7 36:7 39:8 40:35 
-0.9427756507307384 -0.759738898573074 0.7511504709326218 0.0128544847787993 1:1 2:6 3:7 4:2 5:7 6:7 7:1 8:6 9:6 10:2 11:7 12:7 13:1 14:2 15:6 16:2 17:7 18:7 19:8 20:2 21:6 22:6 23:7 24:7 25:8 26:6 27:6 28:7 29:7 30:7 31:8 32:6 33:7 34:7 35:7 36:7 39:8 40:35 
-0.9424357022949966 -0.7596372827560394 0.7511520471675805 0.0128524548784113 1:1 2:2 3:6 4:7 5:7 6:7 7:1 8:2 9:6 10:7 11:7 12:7 13:8 14:6 15:7 16:7 17:7 18:7 19:8 20:6 21:3 22:7 23:7 24:7 25:8 26:7 27:3 28:7 29:7 30:7 31:8 32:6 33:2 34:7 35:7 36:7 39:8 40:35 
-0.9425419173722689 -0.759965377824416 0.7511559349566325 0.01286719359067778 1:1 2:6 3:3 4:7 5:7 6:7 7:8 8:6 9:3 10:7 11:7 12:7 13:8 14:7 15:2 16:7 17:7 18:7 19:8 20:6 21:6 22:7 23:7 24:7 25:8 26:6 27:7 28:7 29:7 30:7 31:8 32:6 33:7 34:7 35:7 36:7 39:8 40:35 
-0.9256404046665595 -0.7457365633330048 0.7375227404310996 0.0125795425177856 1:8 2:7 3:6 4:7 5:7 6:7 7:8 8:6 9:7 10:7 11:7 12:7 13:8 14:6 15:7 16:7 17:7 18:7 19:8 20:6 21:7 22:7 23:7 24:7 25:8 26:6 27:7 28:7 29:7 30:7 31:8 32:6 33:7 34:7 35:7 36:7 39:8 40:35 
-0.9257405426816522 -0.7460826548128403 0.737524769772162 0.01257954251778575 1:8 2:6 3:7 4:7 5:7 6:7 7:8 8:6 9:7 10:7 11:7 12:7 13:8 14:6 15:7 16:7 17:7 18:7 19:8 20:6 21:7 22:7 23:7 24:7 25:8 26:6 27:7 28:7 29:7 30:7 31:8 32:6 33:7 34:7 35:7 36:7 39:8 40:35 
-0.9431744596818482 -0.7601258387776797 0.7511643223920627 0.01286704711268288 1:8 2:6 3:7 4:7 5:7 6:7 7:8 8:6 9:7 10:7 11:7 12:7 13:8 14:6 15:7 16:7 17:7 18:7 19:8 20:6 21:7 22:7 23:7 24:7 25:8 26:2 27:7 28:7 29:7 30:7 31:6 32:1 33:7 34:7 35:7 36:7 39:8 40:35 
